
//<![CDATA[

// a few things don't have var in front of them - they update already existing variables the game needs
lanesSide = 5;
patchesAhead = 50;
patchesBehind = 10;
trainIterations = 100000;

var num_inputs = (lanesSide * 2 + 1) * (patchesAhead + patchesBehind);
var num_actions = 5;
var temporal_window = 0;
var network_size = num_inputs * temporal_window + num_actions * temporal_window + num_inputs;

var layer_defs = [];
layer_defs.push({
   type: 'input',
   out_sx: 1,
   out_sy: 1,
   out_depth: network_size
});
layer_defs.push({
   type: 'fc',
   num_neurons: 40,
   activation: 'relu'
});
layer_defs.push({
   type: 'fc',
   num_neurons: 20,
   activation: 'relu'
});
layer_defs.push({
   type: 'fc',
   num_neurons: 30,
   activation: 'tanh'
});
layer_defs.push({
   type: 'fc',
   num_neurons: 20,
   activation: 'tanh'
});
layer_defs.push({
   type: 'regression',
   num_neurons: num_actions
});

var tdtrainer_options = {
   learning_rate: 0.00188,
   momentum: 0.1,
   batch_size: 128,
   l2_decay: 0.0144
};

var opt = {};
opt.temporal_window = temporal_window;
opt.experience_size = 30000;
opt.start_learn_threshold = 5000;
opt.gamma = 0.92;
opt.learning_steps_total = 100000;
opt.learning_steps_burnin = 3000;
opt.epsilon_min = 0.04;
opt.epsilon_test_time = 0.01;
opt.layer_defs = layer_defs;
opt.tdtrainer_options = tdtrainer_options;

brain = new deepqlearn.Brain(num_inputs, num_actions, opt);

learn = function (state, lastReward) {
   brain.backward(lastReward);
   var action = brain.forward(state);

   draw_net();
   draw_stats();

   return action;
}

//]]>
/*###########*/
if (brain) {
brain.value_net.fromJSON({"layers":[{"out_depth":660,"out_sx":1,"out_sy":1,"layer_type":"input"},{"out_depth":40,"out_sx":1,"out_sy":1,"layer_type":"fc","num_inputs":660,"l1_decay_mul":0,"l2_decay_mul":1,"filters":[{"sx":1,"sy":1,"depth":660,"w":{"0":-0.024254311868401775,"1":0.03457229952005603,"2":0.006072622569927364,"3":0.013213784854137755,"4":-0.028992670495122552,"5":0.017676505871331197,"6":-0.03980043026767105,"7":-0.03431487538664991,"8":0.003626110075501131,"9":0.038703547339208416,"10":-0.008774410657903641,"11":-0.01891619767722113,"12":0.05355593538069581,"13":0.061827231022629034,"14":-0.026388891933577432,"15":-0.04497996669588836,"16":-0.049514533769016295,"17":0.05611322710463801,"18":0.015988099611539616,"19":0.06153106333886124,"20":0.03746515510981718,"21":0.05870950822096128,"22":-0.047451084256404305,"23":0.027991019113200993,"24":-0.03850491378941991,"25":0.10159223170589028,"26":0.018435681058645684,"27":-0.017011172975602777,"28":0.05898632528932812,"29":0.020173392353699457,"30":-0.0253742163673187,"31":-0.03566843992849393,"32":-0.04953648917494739,"33":0.023346691723081743,"34":0.018875407007253264,"35":0.02841480874836046,"36":-0.0019337124089152946,"37":-0.10696027600356726,"38":-0.025907384701799693,"39":0.01283893829352853,"40":0.0263528789490921,"41":0.0006046570355610088,"42":0.022452760114936757,"43":0.044846850917010864,"44":-0.012754393883063573,"45":-0.0477785076533868,"46":0.029791388793310277,"47":-0.008054128125318463,"48":0.06522368967849253,"49":0.021668803829775516,"50":-0.0187570062792468,"51":0.014043918113619073,"52":0.020287353383341367,"53":0.01306802050990241,"54":0.0656220694678539,"55":-0.03789992182896842,"56":-0.0521939557984207,"57":0.026345808800465227,"58":-0.0019046310461773286,"59":-0.03534453170515485,"60":0.04364637006428043,"61":-0.010351588264133802,"62":0.04817787658968567,"63":0.014849564739785513,"64":-0.04409308809254703,"65":-0.036695525663402985,"66":-0.0117168191441114,"67":-0.0030105269491578946,"68":-0.05383203687268217,"69":0.023497981170963928,"70":-0.021591840771784578,"71":-0.011471564317872015,"72":-0.022954630341433503,"73":0.026852596119212126,"74":-0.0614697641518524,"75":0.025713256698839223,"76":0.00199404735666477,"77":-0.04136265487165196,"78":0.05234188102605838,"79":0.010339945107299011,"80":0.005863695401241091,"81":-0.05852379221678245,"82":0.06605108222141542,"83":-0.021961312004321998,"84":0.049084099592550744,"85":0.00016927352539306115,"86":0.025204114164452212,"87":-0.0018952442372737216,"88":-0.0714730277174754,"89":-0.07503841555563642,"90":-0.0020934184294743867,"91":0.028495186393847075,"92":0.002013864358700303,"93":0.07130940439694877,"94":-0.052897763258209565,"95":0.02724060659590496,"96":0.014751002506207925,"97":-0.0019041141193788947,"98":-0.04969398973030167,"99":-0.02407896120864567,"100":0.06869741078888665,"101":-0.001861065947459695,"102":-0.017599525310883796,"103":-0.0012612287492714024,"104":0.07164350132718202,"105":-0.068817369096176,"106":-0.0011286673483272642,"107":-0.040953954717940784,"108":0.05136947042456278,"109":-0.03867399942047083,"110":0.01846166066884042,"111":0.014686912881065464,"112":0.01707315781901881,"113":-0.00265758178816803,"114":0.03372111260037183,"115":-0.016949956113722183,"116":-0.02637895353723313,"117":0.02119437618603561,"118":-0.03770901392929492,"119":0.03178068837385669,"120":0.04587114824092807,"121":-0.014051880088106938,"122":-0.01322303253018196,"123":-0.03932537555343906,"124":-0.005121136801260887,"125":0.024683216067528792,"126":0.0019544768984254466,"127":0.0890312590984248,"128":-0.04349456457296468,"129":0.07605387643606039,"130":0.005077739268075708,"131":0.027102071999777932,"132":0.010824356314992456,"133":-0.01847922636307362,"134":0.026646036364941242,"135":0.029576866466480094,"136":0.0066363045181270395,"137":-0.02063971669144325,"138":-0.012859666795749233,"139":-0.001363925542649431,"140":0.0024550654415563303,"141":-0.04101788449793918,"142":-0.0618166166875285,"143":-0.04706351665423565,"144":0.024138964877717096,"145":-0.062156690641497314,"146":0.019489810360616745,"147":-0.0031908255817678375,"148":0.026129727601035945,"149":-0.016936585725138155,"150":0.016653254232500157,"151":0.017238264817965993,"152":0.021868102237709276,"153":-0.04601217914220099,"154":0.013569624064893704,"155":-0.008722761236372821,"156":0.001428286852075783,"157":-0.039657638689220905,"158":0.005709282768088693,"159":0.027014404300979122,"160":-0.01604478620448901,"161":-0.023432131047962993,"162":0.043899153809648324,"163":-0.06486655538317827,"164":-0.011578897556861277,"165":-0.033912463528809264,"166":-0.08726702149530365,"167":0.03523056436791422,"168":-0.06758119709392454,"169":0.04477508936987752,"170":0.004208696536955489,"171":0.09212242983512475,"172":-0.0069039520467495605,"173":-0.052423131246582794,"174":-0.034438494220991836,"175":0.00538341132074266,"176":-0.07448032714427821,"177":0.07063018497033191,"178":0.01716753804555338,"179":0.005237055013808652,"180":0.015390551646852465,"181":0.003120826507771205,"182":-0.037260773794336885,"183":-0.03561958973664507,"184":0.001044948727377641,"185":-0.0019073704434202728,"186":0.02019625884396447,"187":-0.004531705460492036,"188":0.04705285837184564,"189":-0.01380192624734247,"190":0.012580418576535933,"191":0.029029610509797337,"192":0.005874929668645402,"193":0.02543378529427789,"194":0.017533765642876356,"195":-0.0633158614617048,"196":0.013016283192599846,"197":0.050715952046048236,"198":0.006083820550732635,"199":0.0019703676781504674,"200":-0.06825038070854414,"201":0.009604373254908658,"202":0.00657153796987433,"203":0.04540872359220307,"204":0.018073150531098394,"205":0.009526710970246002,"206":0.00180183668766987,"207":-0.025723452892684993,"208":-0.031905053272142096,"209":0.04303000714527857,"210":0.019993513866922927,"211":-0.014773755422397896,"212":-0.008452028240673672,"213":0.021000845962791413,"214":-0.0005975298199753776,"215":0.033909272767209,"216":0.02113234192044715,"217":-0.025739948211370267,"218":0.0022182321780931154,"219":0.09205574715701723,"220":-0.04373341674258685,"221":0.02827159318165774,"222":0.001803528260526919,"223":-0.05085060578006137,"224":-0.008302760487001924,"225":0.028696464154789325,"226":-0.033335980120800364,"227":-0.03318470077156691,"228":-0.05267726811121534,"229":-0.07240427692869911,"230":-0.012362980120784513,"231":-0.029368592759015016,"232":0.02519670278262726,"233":-0.07140405218208558,"234":0.06017211247388077,"235":-0.041204529862911225,"236":0.03409435773102799,"237":-0.045345329792131316,"238":0.012433053368192809,"239":0.04976768845472794,"240":0.017941211219749148,"241":-0.008448866673541966,"242":0.08919423839317596,"243":0.08351924606681381,"244":0.03817327222860554,"245":0.06579833872369509,"246":-0.047632918206187,"247":-0.06233946196029142,"248":-0.06185211290882853,"249":0.028573678775268268,"250":0.009531175725011358,"251":-0.05941179174200927,"252":0.06524877027652469,"253":-0.07780213831670539,"254":0.03430887551969545,"255":0.03354288508873719,"256":0.006499450398560945,"257":0.06675859257467656,"258":0.007865373487781683,"259":-0.08329669861188163,"260":-0.014330307856205387,"261":0.048890440998304384,"262":0.03136302467175703,"263":-0.005476558818724177,"264":-0.00906423044721996,"265":-0.02620833513267306,"266":0.03349244301691533,"267":-0.021810260130300203,"268":-0.012790528709960194,"269":-0.039558687689325,"270":0.012891131777796489,"271":-0.055765749731259626,"272":0.06606392531385248,"273":-0.01354769177494567,"274":-0.05037739585034487,"275":0.09292291959200988,"276":-0.05605326269032791,"277":0.03607440589391804,"278":0.047022312782135804,"279":-0.03586809589333418,"280":-0.021014318283513776,"281":0.02174112467076822,"282":-0.022373647444282007,"283":0.08314377139563954,"284":0.019579623813263294,"285":-0.09280451968700366,"286":-0.08372928294817802,"287":-0.025106134125120638,"288":0.010396610721378138,"289":0.018381150651226506,"290":0.09616630014903613,"291":0.05289563046535768,"292":0.015954758365503297,"293":0.046419768371165085,"294":0.04076725068164559,"295":-0.02853116481325452,"296":-0.04588224176734828,"297":-0.03447110797667899,"298":-0.012460928141433156,"299":-0.0230899533918548,"300":-0.08459538957785483,"301":0.004934120457313993,"302":0.09496649283962946,"303":-0.04352086769267657,"304":-0.011795979338692301,"305":0.008626257488080555,"306":0.02905453314324291,"307":0.0589154491049326,"308":-0.0212515306073093,"309":0.03132729846487376,"310":0.015849561266718923,"311":0.008686515279372444,"312":-0.04455162534309703,"313":-0.028133199710596354,"314":-0.055104009769544396,"315":-0.03736731908084899,"316":0.03632590516946664,"317":0.02620549358556993,"318":0.027114639234783036,"319":0.016462489278260245,"320":0.03332527353850324,"321":0.0420884892109394,"322":-0.014254913883371518,"323":-0.04174866595735466,"324":-0.013302912952159374,"325":-0.0254326588227421,"326":-0.0639329681965077,"327":-0.03733854354528116,"328":0.08298296307389764,"329":0.03361890253874419,"330":0.06824314709985187,"331":0.02685406235777788,"332":0.011558049849587642,"333":-0.010515125804712946,"334":-0.05696903662891881,"335":0.034591780944601795,"336":0.05739813183030986,"337":-0.04324160075524182,"338":-0.06205010849977096,"339":-0.01751644779518103,"340":-0.08418548381725235,"341":-0.05725912478712911,"342":0.00020657848311995454,"343":0.025506249754013312,"344":-0.05241040258147563,"345":0.009814574052684946,"346":-0.024051403945786098,"347":0.07596359203019785,"348":0.06927103312132159,"349":0.06221844892759917,"350":-0.034183159274622135,"351":0.0006965891107197125,"352":0.029444193257678778,"353":-0.0036162711427027055,"354":0.02256055976599082,"355":-0.01630016501582995,"356":-0.035399621961102655,"357":0.010085699732537555,"358":-0.019755680015042475,"359":0.011377297542656558,"360":0.011159383714404735,"361":-0.06234045004183449,"362":0.03284618330964685,"363":0.0592785758666583,"364":-0.023232513882293863,"365":0.017664765554967567,"366":-0.0039303893316681915,"367":-0.004189107555220933,"368":-0.04523483071597634,"369":-0.0405707398726158,"370":-0.03932072329969924,"371":-0.03962353147491096,"372":-0.02502167018276265,"373":-0.03725850539763341,"374":0.03958147105570712,"375":0.01986439526169217,"376":0.0012179608283013903,"377":-0.04859624311817075,"378":0.05697705942384922,"379":0.03181748029463749,"380":0.017474931592192003,"381":0.03727915360861287,"382":0.03938428476109272,"383":-0.008753155102179739,"384":0.006981420726830745,"385":0.0009859697076048369,"386":0.0023009124723402897,"387":0.01095256597786376,"388":0.03705466811403999,"389":-0.012871599265102791,"390":0.014654011524015567,"391":-0.07662502658376762,"392":0.05662292641615546,"393":0.06722109544154801,"394":0.029612386665076998,"395":-0.012467586198125843,"396":-0.039607936047317584,"397":0.07529125701983225,"398":-0.03200645794851352,"399":-0.0540324929383231,"400":0.031954066393935714,"401":0.02257282921017949,"402":0.05382172571484168,"403":-0.001487704765313444,"404":-0.020290092616020904,"405":0.007384704948465113,"406":0.03595061229953244,"407":0.017186316154644256,"408":0.006425965644575618,"409":-0.041196996944687266,"410":-0.0006126611047916424,"411":0.10051151433381238,"412":-0.01609410094510848,"413":-0.015016326595623393,"414":-0.009195040410620536,"415":0.003666699759478384,"416":-0.03145707664789608,"417":-0.06393745846096491,"418":-0.01948487823473562,"419":0.04253715154690246,"420":0.046632836367303206,"421":0.06389175618623226,"422":0.0003320189877566558,"423":0.09138537046121631,"424":0.042332290286919295,"425":-0.024605324007063466,"426":-0.008841821995554916,"427":-0.0791405692529455,"428":0.029450484507138806,"429":-0.08805049672180935,"430":-0.07638651460529819,"431":-0.008608516054529095,"432":-0.02319863602904692,"433":0.02852642465294209,"434":0.03383970402282539,"435":0.01513675704593225,"436":-0.023661295851727507,"437":-0.02799173818176174,"438":0.09769611264425408,"439":-0.012376382490087365,"440":-0.031390807238482414,"441":0.012613129946525945,"442":-0.06526549710047938,"443":0.029239848042418488,"444":-0.041577529345630776,"445":-0.07660676685161355,"446":-0.020372434726422257,"447":0.047870360106403005,"448":-0.04447938653837987,"449":0.007377191334745315,"450":-0.017587161957866478,"451":0.029051886226516062,"452":0.0018171327666015144,"453":-0.024713578915533035,"454":-0.0035287110218996855,"455":0.0010404161927390243,"456":-0.01874054735426307,"457":-0.01768027978787457,"458":-0.018846698397381765,"459":-0.016849557582138745,"460":-0.04932479698861919,"461":0.08909398697541573,"462":0.07989448448930456,"463":-0.07470004257324799,"464":0.029605781933762516,"465":0.0007614433533957134,"466":-0.031317164817232894,"467":0.0008539008999995382,"468":-0.055680565568172746,"469":0.004377099769603854,"470":-0.0376436422333151,"471":0.007988211785881645,"472":0.007470825138727437,"473":-0.060334973459577675,"474":-0.0038013765343841376,"475":-0.023811016361880686,"476":-0.024185628027539603,"477":0.04709695870759359,"478":0.04284430529000154,"479":-0.05455686704652398,"480":-0.04031927409377853,"481":0.01599827766571779,"482":-0.009145350266855949,"483":0.03543381804457169,"484":0.01703652438466094,"485":0.06299563015686939,"486":0.004321610492801172,"487":-0.011737459389823613,"488":0.02325879473892534,"489":0.01927763004744471,"490":-0.014468350767470937,"491":0.011204594842695547,"492":-0.01609682004426999,"493":-0.023285178813179316,"494":0.024994321828667992,"495":-0.03832603873539261,"496":-0.017324075867715998,"497":-0.0005202662700682668,"498":-0.06410084927396663,"499":-0.020204748464575414,"500":-0.03875180458826191,"501":-0.007215783761049289,"502":0.008217990968713387,"503":-0.020142857400511516,"504":0.054646867526264534,"505":-0.025163316753513718,"506":0.006196137442860978,"507":0.05420875360076255,"508":-0.033697396588477424,"509":0.023183092598926633,"510":-0.015355417956412666,"511":0.05131030557812925,"512":0.0662693597315541,"513":-0.08858871618649085,"514":-0.021653539876884943,"515":-0.021966572425115485,"516":0.0663365832580482,"517":-0.011681263174611852,"518":-0.04327789053504432,"519":-0.0047970886317230885,"520":0.03987324701699699,"521":0.06290117069123595,"522":0.0440033091561238,"523":-0.016089051219128427,"524":0.016130942248522157,"525":-0.05432881777425952,"526":-0.030891778782650023,"527":-0.06337873909045011,"528":-0.03764705214046975,"529":-0.012806923808238453,"530":0.06719632248990653,"531":0.02445834431034358,"532":0.020632682448107873,"533":-0.060480710394382894,"534":-0.07113835042647723,"535":-0.011884690736601153,"536":0.07025663267061898,"537":-0.018284355279879618,"538":0.0492380866521088,"539":0.012455421050029556,"540":-0.07321315230562606,"541":-0.0400240245519105,"542":-0.061728967231578565,"543":0.024494539450089312,"544":-0.012593759827636927,"545":-0.037576602521174986,"546":-0.03123521295660939,"547":-0.04267909146017282,"548":-0.03410306760322624,"549":0.06723773997841907,"550":-0.03141354234008752,"551":0.0057535199855151195,"552":0.016107739895424487,"553":0.022897496132031944,"554":-0.026956429426836,"555":-0.0009640104640522444,"556":-0.0382623241802408,"557":0.07461362910617082,"558":0.0006587256586619504,"559":0.023524021005402497,"560":-0.013990074891436215,"561":-0.021666549073054243,"562":-0.005760275422763282,"563":-0.0413995318035397,"564":-0.015536802547814884,"565":-0.004168347127423051,"566":0.013272391670650129,"567":-0.011614794262360154,"568":-0.04256066231947832,"569":-0.013928596851430707,"570":0.016015393154853244,"571":0.004502725704937114,"572":-0.014853990226296914,"573":-0.022883392367851835,"574":-0.0040680798186956335,"575":0.07332356733542565,"576":-0.004036813447807027,"577":0.006228959577013197,"578":-0.048937393912533086,"579":-0.032385412698332,"580":0.02030970565798205,"581":-0.014613033243140637,"582":0.029672480748350945,"583":0.020505792513186658,"584":0.0062788768731278834,"585":0.027292433976819328,"586":-0.055659734471895504,"587":0.048396798828064455,"588":0.004783352376000045,"589":0.04666256338408377,"590":0.01815553582740764,"591":0.01979981285350216,"592":0.03217356728505733,"593":-0.022438298278741164,"594":-0.06886141747924585,"595":-0.02916165894981309,"596":-0.03547695875766231,"597":-0.009722659249043515,"598":-0.03613344991605973,"599":0.06077350086001697,"600":0.014298276817698982,"601":0.059476110856169155,"602":0.007264623625276409,"603":-0.06494218125728356,"604":0.0893269137467983,"605":0.005657763215993719,"606":-0.10496870401948237,"607":-0.0037892805663568524,"608":-0.008902239142232373,"609":-0.007056687297504519,"610":0.03429374898367733,"611":0.010819938495641921,"612":0.0075027159226472495,"613":0.016028432909272854,"614":0.04227811811181447,"615":0.09384994763577441,"616":-0.08141739043815356,"617":-0.09484912231617336,"618":-0.0410823337682712,"619":0.004146361394023162,"620":0.03572381264669223,"621":-0.02247030062291497,"622":-0.05550336035693495,"623":0.04231980258734927,"624":0.017565000232006106,"625":-0.05863081806694262,"626":0.0354773674358275,"627":0.07131077600112122,"628":0.005004705860231964,"629":-0.07372244573984349,"630":-0.01036491466575321,"631":0.023737722076312768,"632":-0.08424006762600418,"633":-0.010007150939229048,"634":-0.008327875013906468,"635":0.04891218729432093,"636":0.05154556980806992,"637":0.00668457019096313,"638":0.021368635890011468,"639":0.03715362805240151,"640":0.05064275562811896,"641":-0.03038430735009919,"642":0.01237698709867073,"643":0.014945455238753767,"644":0.03062599017415431,"645":0.00080805283251295,"646":-0.02259451599121833,"647":0.0016792981713261673,"648":-0.0438293439692049,"649":0.03564406464856296,"650":-0.027681885104821575,"651":-0.07615307533112801,"652":-0.008497835617573451,"653":0.008089963138690958,"654":-0.02282613996854677,"655":0.0733414856048685,"656":0.05037178377130578,"657":0.005073632141598665,"658":-0.03249639863802419,"659":-0.028648879651161446}},{"sx":1,"sy":1,"depth":660,"w":{"0":-0.015002714242089073,"1":-0.011585199223123413,"2":0.02456522120252039,"3":0.028919949620464663,"4":0.018174791994924538,"5":0.0014498051461862363,"6":0.006071873256020533,"7":-0.10982086650800998,"8":-0.027259230046737876,"9":0.004312361638120769,"10":-0.03814933947804785,"11":0.010917475525485594,"12":-0.03157746799255245,"13":0.008592765105110868,"14":0.03472537658820951,"15":0.02229742937959247,"16":-0.021903609961381878,"17":-0.033716095191759665,"18":0.08869159199379785,"19":0.057785487026752076,"20":-0.07033506597489092,"21":0.024738113802010315,"22":0.066745819087994,"23":-0.010817496598052999,"24":-0.02374962176945655,"25":0.061736520038478244,"26":0.02008938717964615,"27":0.02870278812857698,"28":0.018089483985550714,"29":-0.0048072901532932085,"30":0.013732973409968553,"31":0.05753985025337364,"32":0.017926651494716485,"33":0.01623441873730145,"34":0.02653412153870895,"35":0.048445928908929854,"36":0.03674868434114122,"37":0.04952359471241289,"38":-0.016128334610640657,"39":-0.06633655812359991,"40":-0.027989911685550616,"41":-0.03827248891360684,"42":-0.023002298093660726,"43":0.004027899117780684,"44":-0.05609308734386556,"45":0.05017560657614996,"46":0.01331442649383218,"47":-0.017915279528392718,"48":-0.03094898972578909,"49":-0.02667301167478695,"50":-0.021774802033048594,"51":-0.036874707237521,"52":0.045861458311970645,"53":-0.07835835198457446,"54":-0.027346043877436596,"55":-0.007494316734092372,"56":0.033590873275851106,"57":-0.03152557653486996,"58":-0.04439984593690109,"59":0.01167248409460954,"60":0.0059036513212218315,"61":-0.03395921846002062,"62":0.04209109599110035,"63":-0.051761980079414974,"64":-0.02639077946747406,"65":0.03713112305877875,"66":-0.024753809948113232,"67":0.00797339000015815,"68":0.07908750822609775,"69":-0.039109739789725505,"70":0.023900548436814516,"71":0.06039882463558018,"72":0.021818447460717476,"73":-0.024282667993884958,"74":0.008017632498947718,"75":0.07522428979671697,"76":-0.019375151339545028,"77":0.04430401099851538,"78":0.05867510456944711,"79":0.04660737914500434,"80":0.019652655280582906,"81":-0.016220207021183437,"82":0.021163412126384843,"83":-0.025267475172666767,"84":-0.00011717082166366954,"85":0.052344786279435486,"86":0.013573454917256002,"87":-0.01294891244120774,"88":0.05092953246525636,"89":-0.011548760298474278,"90":-0.003543626545190254,"91":-0.04925687367505837,"92":0.029726075656534526,"93":0.07025231691616492,"94":-0.013556756029980351,"95":0.04962549113021962,"96":-0.005568181227816062,"97":0.0028264085210114543,"98":-0.042074437690848336,"99":-0.02734114590616875,"100":-0.006497836036804063,"101":0.016923491055177587,"102":0.004156978482547201,"103":-0.05631492202137778,"104":0.03214319602588255,"105":0.057483607857569466,"106":0.016811072868466725,"107":0.03655153363046788,"108":-0.012987284032625465,"109":0.03209362341124025,"110":-0.0130108070755274,"111":0.008382680522353103,"112":-0.07367555539248768,"113":-0.03792925753365553,"114":0.046498431234934974,"115":0.009509596531079731,"116":-0.013664233401773805,"117":-0.04069875248931227,"118":-0.03214275079069145,"119":0.02209166349718391,"120":-0.023145905953383353,"121":-0.01720481002853704,"122":0.004663801793620787,"123":-0.0008027953185856539,"124":-0.04573217857979898,"125":-0.014520548102381273,"126":-0.006833783706813353,"127":0.007658243315390797,"128":0.031340722249319115,"129":0.08887017999388294,"130":0.004758448806220662,"131":0.01839735626989395,"132":0.033307548236225906,"133":-0.017072248700305513,"134":0.04834377160457716,"135":0.025118826676360912,"136":-0.0184555461288862,"137":0.04038468960443339,"138":-0.06620716419960483,"139":-0.002478270381984205,"140":0.015761414705565538,"141":0.04088490292442994,"142":-0.017147644451977324,"143":0.004820813635660326,"144":-0.0363518421952924,"145":-0.08686957016139817,"146":-0.02831940911896727,"147":0.0014011932541305528,"148":-0.049870496995703235,"149":-0.0201287021062208,"150":-0.03674126003933284,"151":0.05806010821659706,"152":0.027173681833238875,"153":-0.0064383208743446175,"154":-0.04711589688235157,"155":-0.06912284863203579,"156":0.007612631250967024,"157":-0.06186036872209955,"158":0.034751288916022444,"159":0.04055422187380735,"160":0.025552553612716113,"161":0.0366657794536063,"162":0.040376882184556984,"163":-0.012456095529501023,"164":-0.03579208814161915,"165":-0.0021181988806358615,"166":-0.00040599830876875413,"167":-0.003447570902984649,"168":-0.06637880855657328,"169":0.018088715912234092,"170":0.044370363294409826,"171":0.027476891929584225,"172":-0.04014810400460146,"173":-0.02846512435907382,"174":-0.08473042045539105,"175":0.02197840480554601,"176":0.019056797504198326,"177":-0.055928161816137245,"178":-0.028878731895254767,"179":-0.022763740453717443,"180":-0.11447763633290575,"181":-0.010529085353377762,"182":-0.07345926937000877,"183":-0.0020173405020551703,"184":0.004275975103841611,"185":-0.039502257926412696,"186":-0.02033167648521502,"187":0.023155882807963074,"188":0.002669948201713392,"189":-0.04464861972193951,"190":0.031509928877720424,"191":-0.04537772039141445,"192":-0.03505578757738041,"193":-0.05131966773739763,"194":0.012935708942703607,"195":-0.05153400572292992,"196":0.06537834892644333,"197":0.009105125768051281,"198":0.032361300158612716,"199":-0.03445767222585591,"200":-0.05064409512362869,"201":0.0011864078602987801,"202":-0.00070725221079789,"203":0.022920979658779705,"204":-0.0014308823442120463,"205":-0.007278601373523083,"206":-0.02217891593396604,"207":-0.0005826092246120964,"208":0.07437549243184201,"209":-0.010225793097383515,"210":-0.013982035895540538,"211":0.003501604061953026,"212":0.06568313174126858,"213":-0.0235251338396533,"214":-0.0674467195434262,"215":-0.02722508708104182,"216":0.039317328874797615,"217":-0.009940613247702132,"218":0.02093149382616245,"219":-0.03614274691349345,"220":-0.006876752542440662,"221":0.016874946751841962,"222":0.03074431465030364,"223":0.030549729325065406,"224":0.024631542994235936,"225":0.0551904340710443,"226":-0.026243581831119512,"227":0.02007201530049732,"228":0.005957147747349313,"229":0.013370997332322722,"230":0.03372448999595616,"231":-0.060653712950476904,"232":0.04045285521902799,"233":-0.004521965460422812,"234":0.024144069790046345,"235":0.03994508328611644,"236":0.01903169139284135,"237":-0.010559023400480209,"238":0.012646822303745513,"239":0.003243730857988231,"240":0.031582603931541546,"241":0.011129875949969193,"242":-0.0035860579649113432,"243":0.052378533567705055,"244":-0.03512868120225005,"245":-0.03285947509476717,"246":-0.04164029281639713,"247":-0.04239868369060995,"248":-0.08298145078788768,"249":-0.030005461200663597,"250":0.038648376439369074,"251":-0.0654317291216197,"252":0.01493183316681603,"253":-0.004622415580584023,"254":0.031210882788781997,"255":-0.02844857594009845,"256":-0.01941488522061196,"257":0.055895265061992,"258":-0.004999299470002065,"259":-0.0033020569882594307,"260":-0.01622234299251487,"261":0.05684297865577793,"262":0.011955789418046012,"263":-0.013589988968202762,"264":-0.028012933021267068,"265":-0.036683472253368564,"266":-0.04667069505511133,"267":0.02685895220497789,"268":0.03335203128186527,"269":-0.002937507510035667,"270":-0.02176406378850681,"271":0.027588022800914606,"272":-0.03765827209820784,"273":0.01007655029324351,"274":0.049022685404568306,"275":-0.014992438200189757,"276":0.058280654080196524,"277":0.032327760574739586,"278":0.03259638814346911,"279":-0.05329341773534485,"280":0.031024904936772946,"281":-0.0844371072122804,"282":-0.051176257680829,"283":0.0011529552232103077,"284":0.033747307210024745,"285":-0.04479277282010564,"286":0.07312776123329844,"287":0.029347591118774042,"288":-0.06672433051112889,"289":-0.00017939286262007444,"290":-0.03326457367787437,"291":-0.023765455980084678,"292":-0.03470308149960847,"293":-0.0038299821306438443,"294":-0.021242679481270055,"295":0.03757238794505758,"296":0.010598856622918741,"297":-0.011886819237088469,"298":0.014433593148124169,"299":0.0318270391150227,"300":0.05719431098868349,"301":0.005093336933552116,"302":0.039843496635490395,"303":-0.01693960588352329,"304":-0.003323831460961789,"305":-0.005897116921185727,"306":0.06383388293665422,"307":-0.014325786908698668,"308":-0.00046587309552115777,"309":-0.00990495540981347,"310":0.03478834870486379,"311":0.04980244577340927,"312":-0.03740714393815718,"313":0.014400435929381191,"314":0.03935414815437575,"315":-0.011849960339303123,"316":0.03778654953030791,"317":-0.011827209355167527,"318":-0.04143231365174317,"319":-0.009102793870492388,"320":-0.05203746651880532,"321":0.02182674809606745,"322":0.01621273889232086,"323":0.014135924190274436,"324":-0.0014005958502566593,"325":-0.009779182531156533,"326":0.0717391411672923,"327":-0.01786467595893704,"328":-0.008605606955106487,"329":0.00243381535630257,"330":-0.022071906194627903,"331":-0.013323194599992295,"332":-0.02721478206955004,"333":-0.0013824403335023078,"334":0.03568923851398679,"335":0.05871374397642706,"336":0.022221017232078706,"337":0.03677724896929753,"338":-0.0014467371480138083,"339":0.035274955799435015,"340":-0.07879389430193777,"341":-0.006386149003066137,"342":-0.012008945995417908,"343":0.012987898885760466,"344":0.054092561281380826,"345":-0.028350078460076162,"346":-0.027846894662732973,"347":-0.013634587544010358,"348":-0.001731263459822084,"349":-0.06894322600129989,"350":-0.05356675963614298,"351":0.006170573999602475,"352":-0.04858062725627757,"353":-0.021720861842161765,"354":-0.018440332049261463,"355":0.013381276553038146,"356":-0.052910694807234815,"357":-0.011746808873189239,"358":0.040365271963153065,"359":0.04093773781031377,"360":-0.019619562397536195,"361":-0.05521352273372323,"362":-0.014101030921557876,"363":-0.047451606283403704,"364":-0.04582714346378531,"365":0.00432845146417453,"366":0.005305031427985132,"367":0.03115431292809043,"368":0.007403065322019901,"369":0.01573197766840818,"370":0.02048111166727584,"371":0.004020964097820338,"372":-0.028382998299243033,"373":0.03506141763389459,"374":0.05953328788298535,"375":0.0397884757528257,"376":0.030101532880441664,"377":-0.023494137164103,"378":0.010015349494581893,"379":-0.0015645048614928091,"380":-0.02665425656004127,"381":-0.047909707434320305,"382":0.008935600535663174,"383":-0.03139916578953356,"384":0.10250625455078635,"385":0.00440773285173176,"386":0.07431988494089788,"387":-0.027730222259799903,"388":0.0025851044099244216,"389":0.05194652452991045,"390":0.001933611433868901,"391":0.035477288200847445,"392":-0.02710721123830835,"393":-0.011152117309725719,"394":-0.02626037922105142,"395":0.008256410450665354,"396":-0.037021372594228136,"397":0.08654268692649703,"398":0.00015888302685509155,"399":-0.07822170240397386,"400":0.017333650228689122,"401":0.009598470684241127,"402":-0.06405774073096732,"403":0.0722975917340695,"404":0.0010314875351487638,"405":-0.08833665628080865,"406":0.010779568803398663,"407":0.03787440566072199,"408":-0.027878570560105686,"409":-0.03527254534889124,"410":0.030919504966582134,"411":0.039012108484587346,"412":-0.06047099228181503,"413":-0.032672811620091946,"414":0.041689813991748995,"415":-0.05770381855250313,"416":-0.06447666748577263,"417":-0.01565690909628102,"418":-0.003456127081546486,"419":0.04853410243270377,"420":-0.046299089009043004,"421":0.027052437142583447,"422":-0.005925199819421393,"423":0.15216545924238686,"424":0.02966002958705374,"425":0.028584857949406624,"426":-0.04902311759421408,"427":-0.0326547608211829,"428":0.026136024350752716,"429":-0.04245190483069134,"430":-0.06526534897846108,"431":-0.08111374572579476,"432":-0.041379809557758135,"433":0.0356375409622926,"434":0.0007398929837072735,"435":-0.03452289207386993,"436":-0.03411408237150562,"437":0.04072340747477324,"438":-0.0031120018308074967,"439":0.03914429646983261,"440":-0.002958099061374598,"441":-0.05171413766725373,"442":-0.019679178085059312,"443":-0.015664694549266903,"444":0.012153885705814806,"445":-0.05641261988424828,"446":-0.009025311911622737,"447":-0.052754568603294104,"448":-0.0269447073119586,"449":-0.015010556510446263,"450":0.0030169224568877763,"451":-0.06091131466562015,"452":-0.04745205888245556,"453":-0.024032620396315645,"454":0.032466623099966015,"455":0.016194852082946947,"456":0.015972537385139873,"457":0.008530018806259913,"458":-0.07316436296488034,"459":0.04736558646033705,"460":-0.007205873040930691,"461":-0.005189591617395056,"462":-0.013486556945449465,"463":0.012994470429401293,"464":-0.07112954930928879,"465":-0.04832407331750071,"466":-0.004706866265513774,"467":-0.04862059418732831,"468":0.08052083514967155,"469":0.0317053633653811,"470":0.009365313795644271,"471":-0.026657391853057936,"472":-0.016971171075670213,"473":-0.04471705009586345,"474":-0.041231280766586505,"475":-0.015750730915585803,"476":0.05734163009869759,"477":-0.005058777465921918,"478":0.05385577216314937,"479":0.01978449657149371,"480":0.012701095125039957,"481":-0.028101097804140645,"482":-0.01943389868563787,"483":-0.04954686178414104,"484":0.06231731757349289,"485":0.019841880019856352,"486":0.06514620317113555,"487":0.026858327755865153,"488":0.016824816839418246,"489":-0.010003773275403655,"490":-0.04571841361502695,"491":0.03702809012574037,"492":0.012775546188058167,"493":0.03618108127316523,"494":-0.008168388548424433,"495":-0.044921254834123334,"496":-0.0024581033399583892,"497":0.019393588365435577,"498":0.0113323136843042,"499":-0.013626670475440463,"500":0.05401606577068957,"501":0.015438967951074472,"502":0.05706679109232754,"503":-0.047797605299935354,"504":-0.005549316723368608,"505":-0.02772589603017235,"506":0.018640290395665383,"507":-0.034301866878595454,"508":0.02393292552202496,"509":-0.03231150758788029,"510":-0.015030342034805416,"511":-0.00651570606552833,"512":-0.025777695644149532,"513":0.006197375981748536,"514":0.05400976807517608,"515":0.047677262568280004,"516":-0.01715955210739829,"517":-0.02919519152859213,"518":-0.03358508763519948,"519":0.008961824013970417,"520":-0.010471007625162886,"521":-0.043202567139217544,"522":-0.040226163411149776,"523":-0.05783040744076578,"524":-0.09990657030688956,"525":-0.045578961980893694,"526":-0.00902984140300611,"527":-0.02956276509417414,"528":0.03190379782922546,"529":0.042172120925666905,"530":-0.05412550211462814,"531":0.021949388910065492,"532":-0.06569377522405728,"533":-0.0317740080654754,"534":-0.008996238930946907,"535":-0.08052044390067589,"536":-0.01060589536894282,"537":-0.004939351550972647,"538":0.10394979245752663,"539":0.02234177382947881,"540":0.006650490211571218,"541":0.02309164918497524,"542":-0.03385797318999825,"543":0.04846238277002726,"544":-0.03674986453650998,"545":-0.0010344962340040219,"546":-0.06371384995614843,"547":0.052419932767011984,"548":0.02018385969439786,"549":-0.009030983742705053,"550":0.02797397787519856,"551":0.011418568742671945,"552":-0.01999370858677274,"553":0.07038249286817069,"554":-0.032982101322954184,"555":0.0326893144442586,"556":0.00804369172158934,"557":0.07732351795045396,"558":-0.019525183281102986,"559":0.03355461553704702,"560":-0.04312755246220652,"561":-0.004727544869514105,"562":-0.021486686839322595,"563":-0.03066081656906971,"564":-0.020047271383220145,"565":0.026743932025747024,"566":-0.026058331796756217,"567":0.03713184970639435,"568":-0.035666560634278775,"569":-0.01987369831833205,"570":0.0524389499873482,"571":-0.06670782469710221,"572":-0.015756089295678184,"573":0.0015378258683422998,"574":-0.14646190390218866,"575":-0.018073253347233118,"576":0.03505840772248498,"577":-0.001457625935943968,"578":-0.07424952456359125,"579":-0.019577732800608257,"580":0.005668138252943984,"581":0.03515717495299992,"582":0.04243481703250835,"583":0.0768402175268085,"584":0.01779197832820173,"585":-0.012655123813828205,"586":0.031439589424084785,"587":-0.0015024150163306796,"588":0.02681730608775306,"589":0.013796242448702215,"590":-0.009604307832113251,"591":0.014687925876284558,"592":-0.0029671112141834675,"593":0.04441614325009113,"594":0.026783920476854576,"595":0.03877332037601705,"596":0.03925511961182926,"597":-0.05622915231693052,"598":-0.04615006896988856,"599":-0.06667687732664244,"600":-0.035927171041385306,"601":0.002402814587764216,"602":-0.00799887193112806,"603":0.015210485531821848,"604":0.02682235245909304,"605":0.036051758910629124,"606":-0.003313543615564132,"607":-0.023121952542442533,"608":0.04575820025780524,"609":0.002466894798437153,"610":0.018805244907696313,"611":-0.012675345764134888,"612":0.058462495834661156,"613":-0.006298016571817071,"614":0.08305616854576389,"615":-0.0252694179019514,"616":0.08482685412990594,"617":-0.05897253465943143,"618":0.00631396486071852,"619":0.027578700722815753,"620":0.014878600380235169,"621":0.04768805210698661,"622":0.004592646942089694,"623":-0.013865902668844366,"624":-0.0013018337323850515,"625":-0.0315029915851161,"626":-0.10607474367543163,"627":-0.024289375080499675,"628":0.06658508201467839,"629":-0.034292451483943096,"630":0.017261511721908526,"631":-0.0013376305633952252,"632":0.02261883434427204,"633":0.02835301436238279,"634":0.058418766954725726,"635":-0.02984012694081058,"636":0.01610128974303621,"637":-0.001565145156339721,"638":-0.012465566653166253,"639":-0.07583456794330623,"640":0.03612439967501095,"641":-0.07200381956315487,"642":0.02999419656228112,"643":-0.03382246327445128,"644":-0.057836550029264445,"645":-0.03562389309319297,"646":-0.021062153438145586,"647":-0.027532119389969422,"648":0.04565942657670649,"649":-0.003487109735348156,"650":-0.02498501498570219,"651":-0.023979998393263497,"652":-0.01309463973203222,"653":0.012090346088001651,"654":-0.025775685871357586,"655":-0.1056987146960899,"656":-0.07624739759830841,"657":-0.04472191905141384,"658":-0.04955803848976913,"659":-0.014866310224717643}},{"sx":1,"sy":1,"depth":660,"w":{"0":0.003678161664667166,"1":-0.0177576288719537,"2":0.02594987982940734,"3":0.007782649875128742,"4":-0.02501046228117885,"5":0.06097500439199517,"6":-0.011990047745327258,"7":0.05020533301975487,"8":0.007259640205325132,"9":0.0078392075188488,"10":-0.009674283311508922,"11":-0.03755677081041925,"12":0.04290918245341378,"13":0.0460970418526232,"14":0.00659706401174348,"15":-0.024483632124249758,"16":-0.03525699132535723,"17":-0.08558903422776559,"18":-0.013098424789977497,"19":0.023393287831538705,"20":0.07781822646232162,"21":-0.030744892153297846,"22":-0.004175141332043137,"23":-0.016865018803842842,"24":0.030191146749350768,"25":0.0016913056348737323,"26":-0.041858033034662276,"27":0.010853358475537136,"28":-0.025107431251461754,"29":0.006567774329734915,"30":0.06787254122390461,"31":-0.0016624222381823022,"32":-0.04932223340905432,"33":0.08550121385836795,"34":0.07209382454568575,"35":0.06137973616930853,"36":0.01264883962146457,"37":-0.06457424426981094,"38":0.061367229813565564,"39":-0.022666615215761934,"40":-0.00019361893016232547,"41":0.05866162287692867,"42":0.04949895048278957,"43":-0.005977066812205872,"44":0.03780776245698731,"45":0.004659755554333513,"46":0.03242431715730181,"47":-0.04030536419478352,"48":0.0014537361227177498,"49":0.031735305171412674,"50":-0.03002415351441028,"51":0.003186754116723325,"52":0.022255309154968508,"53":-0.001997782244843793,"54":-0.005366236570989363,"55":-0.01739558768700266,"56":0.041040163902225923,"57":0.051740039841131145,"58":-0.0720748689558044,"59":-0.04921156547039211,"60":-0.013102007074358758,"61":0.11373072412962591,"62":-0.03456889197133936,"63":0.031820182829091055,"64":0.01625724825843315,"65":0.016894550820087055,"66":-0.052970297412442226,"67":-0.03158361192920586,"68":-0.05787712205286573,"69":-0.013123026700000361,"70":-0.008268697810959905,"71":-0.06850187459850285,"72":0.0022996089492364423,"73":-0.009555313205998027,"74":0.03601859125849125,"75":-0.003235272812038888,"76":0.05279517569302699,"77":-0.01101355956293017,"78":0.04832713435810628,"79":-0.08800173211646967,"80":0.0027188017310209424,"81":0.02191270474422369,"82":-0.06488878118688135,"83":-0.03984531846472392,"84":0.030238803934838687,"85":-0.02962644656992443,"86":0.003281821382124823,"87":0.0206009346343446,"88":-0.0405883186521279,"89":-0.10449518240161779,"90":-0.017730395986321645,"91":0.0036773668290031192,"92":0.05079402431619217,"93":0.002583075638250768,"94":-0.011261359573340176,"95":-0.014156127851014562,"96":0.04704907902435954,"97":-0.021560953755368692,"98":0.016542133179747863,"99":-0.011794321943403373,"100":-0.08587915061076955,"101":-0.024480674795421382,"102":0.010903902976466488,"103":0.023668555341150324,"104":-0.0006682512716878786,"105":0.0196036625214445,"106":0.04015833610553093,"107":-0.0025129724904584786,"108":0.03705258651188472,"109":-0.019007878898618037,"110":-0.055946039820298755,"111":0.031860413256652315,"112":0.02531838704585533,"113":0.03827411533688096,"114":0.01494361743464134,"115":0.049734198202331804,"116":0.008757907025955462,"117":0.02795204147676549,"118":0.029379454242347485,"119":0.06905278516584862,"120":0.014233729885946025,"121":0.016767689243205066,"122":0.012493042201046628,"123":-0.014392094100975816,"124":-0.004545400450807262,"125":0.13259545195917438,"126":0.035467903845406615,"127":-0.0120994279804878,"128":-0.024405633353597866,"129":-0.04277680589965793,"130":-0.10285368038061188,"131":-0.053126282460798056,"132":0.037349220164192724,"133":0.018874992414839253,"134":-0.05468997190162575,"135":0.0247433046320787,"136":0.004392759566800104,"137":-0.03784446507051048,"138":-0.02684922292388345,"139":-0.013482851526113875,"140":-0.0021015647179461793,"141":0.08350098554971641,"142":-0.02106558040553845,"143":0.0488679286197933,"144":-0.0031170175309694144,"145":0.037287827231979834,"146":-0.026773253338828528,"147":0.02162363182671624,"148":0.06535224608784769,"149":-0.019493639755312688,"150":0.010813027128578998,"151":-0.00003140248835894725,"152":-0.0034554162746748365,"153":-0.03987979654872989,"154":0.007144928789134046,"155":-0.02972865692504473,"156":-0.02296320552793429,"157":-0.01748098733235942,"158":-0.022760473406166756,"159":-0.0021994034134075807,"160":-0.024527495428358716,"161":-0.04485793023104169,"162":-0.012632712725669095,"163":0.04212257812126127,"164":0.07072749518940179,"165":0.02756137948106544,"166":-0.04959746770285249,"167":0.0006737832317099068,"168":-0.002238948490402476,"169":0.03232059498581388,"170":-0.004258561100948975,"171":-0.024518512951929645,"172":-0.03428497231333526,"173":-0.011992800828784187,"174":-0.004988804704566476,"175":-0.029400911163723294,"176":0.014169731860440465,"177":0.04566646183350715,"178":-0.029918997657568405,"179":-0.04672386812120713,"180":0.02992294497959888,"181":0.033972670978771644,"182":-0.04987400603395221,"183":0.03157502580610887,"184":-0.006074850024958393,"185":0.03318133278978418,"186":-0.06836686152170604,"187":0.06291917732488883,"188":0.011931336130414548,"189":-0.008398134884393093,"190":-0.02139683832638467,"191":0.029884029501272287,"192":0.004909281957521394,"193":0.04079490296657847,"194":-0.053212073599287604,"195":-0.04403713667165517,"196":-0.03769923499604605,"197":0.0012627573967730849,"198":-0.04696296468492714,"199":-0.060968752509288654,"200":-0.007951579473738245,"201":-0.04652068411939765,"202":-0.04297670357366697,"203":0.005325861818169112,"204":-0.047051312359986726,"205":-0.042137410529204736,"206":0.05601132197125976,"207":-0.02802010817325844,"208":0.023784015309155093,"209":0.000030435210034226945,"210":0.04146201194149725,"211":-0.0068779316324036124,"212":0.03798449810528074,"213":-0.0068526676638298286,"214":0.045466020670726526,"215":0.012245025180507761,"216":-0.05757310312442084,"217":0.048932382374456636,"218":0.03536094216584264,"219":0.024136337048262877,"220":0.01329181953508857,"221":0.11286954258677921,"222":-0.01730369926593986,"223":-0.044761068381068206,"224":0.04595029164600903,"225":-0.012023258728787305,"226":-0.07542849243434717,"227":-0.055259304300476736,"228":-0.041280203190575605,"229":0.03506149476609318,"230":0.04218945568628733,"231":0.068649925560322,"232":-0.054682630395519606,"233":0.07065336220221619,"234":-0.06652153379784878,"235":0.05425404912225756,"236":-0.06705612014983929,"237":0.005084392949568465,"238":0.01158049801653446,"239":0.03846476858268641,"240":-0.04073372286495481,"241":-0.046970573841623765,"242":-0.07836249837946511,"243":-0.006457514145456312,"244":-0.029074091505822228,"245":0.01116128989945591,"246":0.09188972590561358,"247":-0.04178922248958135,"248":-0.025358724806403544,"249":-0.016287974673599947,"250":-0.0036798062285752597,"251":0.019458978535433984,"252":-0.011918365654874771,"253":-0.03317713061985686,"254":-0.03246561061758834,"255":0.01074316781755743,"256":-0.004119940477732553,"257":-0.04961790994507869,"258":-0.029668827499471157,"259":0.0014054268067170892,"260":0.007398474713126426,"261":0.00408317142551743,"262":0.0519888153490289,"263":-0.017176591720873702,"264":0.0063635149893289285,"265":0.014465396357885489,"266":0.04381106974896503,"267":0.006762617711388946,"268":-0.03886516940673234,"269":0.009509805507560486,"270":-0.007811075191007956,"271":-0.017553383171057597,"272":0.053373809545476804,"273":-0.017376751542350025,"274":0.025886946775903842,"275":0.033221291425030504,"276":0.04166808823427258,"277":0.011500804976323359,"278":0.04653633309969221,"279":-0.08247764245613734,"280":-0.028640067563794665,"281":0.03359930605430074,"282":-0.004248936892617309,"283":-0.030061835452685134,"284":0.018888926748776614,"285":-0.018837098521091476,"286":-0.028883503005328624,"287":-0.0046350241551897245,"288":0.020455163272104886,"289":-0.05656428235450469,"290":-0.03901170916749678,"291":0.018006048907152128,"292":0.017241301489074944,"293":-0.09561531182274415,"294":0.008930785034268399,"295":-0.0511383552775131,"296":-0.017116308728038543,"297":-0.0504320168242606,"298":0.01636146934918724,"299":-0.0009540217530433354,"300":0.003909904848568645,"301":0.047085428938664076,"302":-0.052187805888309104,"303":0.02442892930763922,"304":-0.06393658935070749,"305":-0.015112441468975125,"306":-0.07203383054960277,"307":-0.026563068034878068,"308":-0.026562552076361566,"309":-0.01300134168550563,"310":0.026461450679157228,"311":0.061334692035352606,"312":0.03398194429159563,"313":-0.005799286298225725,"314":0.07704408359878835,"315":-0.029736759097077386,"316":-0.08286484266179144,"317":-0.00803931530185404,"318":-0.014965038825704284,"319":0.05115083686264563,"320":-0.01867920610807572,"321":-0.005412570117208321,"322":-0.018946951020821955,"323":0.052978125417677636,"324":0.013574435501633302,"325":0.011146358201481295,"326":0.012798720972705917,"327":0.07000303847518737,"328":-0.023574068249567773,"329":-0.01042494513908032,"330":-0.022649450256949512,"331":0.04861197893331772,"332":-0.061959182357023454,"333":-0.10824360172619005,"334":-0.07322002697406729,"335":-0.06545674321826546,"336":0.023438493452878264,"337":0.06580446060918357,"338":-0.03137218754409219,"339":0.028622566141007087,"340":0.0018827797206550129,"341":0.03444708577199873,"342":-0.02593414976961909,"343":0.018287061550747788,"344":0.009560308199467925,"345":-0.03407589060179048,"346":0.0066150086929077125,"347":0.015710882891715468,"348":-0.004471674005851001,"349":-0.04806419486349382,"350":0.020384307290546338,"351":-0.015544812940619396,"352":0.04226630889360302,"353":-0.01387090487549832,"354":-0.053305993907715135,"355":0.051721754386796326,"356":0.008225516850071272,"357":0.017906219743979778,"358":0.08348442662927066,"359":0.03087497664588405,"360":0.0557250091465775,"361":-0.04311291781464804,"362":-0.017913063716421006,"363":-0.022758415937302733,"364":-0.003792633468300995,"365":0.02021567491956698,"366":0.03904036785220967,"367":-0.05560343817343006,"368":0.00906232474292687,"369":-0.014916655264633778,"370":0.02615681578320219,"371":0.0406172365275334,"372":0.023395417183363992,"373":-0.13060031223357702,"374":-0.03391824753671002,"375":0.04367870358975298,"376":0.04502692308830403,"377":-0.06299979904836935,"378":0.02429953725931634,"379":0.06256348101505521,"380":-0.012556223224519785,"381":-0.03952321046053306,"382":-0.017234058068777362,"383":-0.06674055027929866,"384":0.03793890813127405,"385":0.038364233041511805,"386":-0.03977341030134998,"387":0.05442715269506287,"388":-0.02709272927575983,"389":-0.0013546728245776138,"390":0.039839640896010976,"391":0.016936832216723076,"392":-0.007259526870786185,"393":-0.013350588350620498,"394":-0.004992456571086159,"395":-0.014478899910138761,"396":0.016277751817350514,"397":-0.06690879491265626,"398":-0.0014586624464145146,"399":-0.06191124028540056,"400":0.03610693082526269,"401":0.0531317666367711,"402":0.0048080283257737715,"403":0.05832347689254141,"404":-0.04452685297892986,"405":0.06381838109863136,"406":-0.07484880658149887,"407":-0.045753221089951425,"408":-0.014947419505357452,"409":-0.04677658066658336,"410":0.08587176516206253,"411":0.008428255070962799,"412":0.02740639284279033,"413":0.02342582939899819,"414":0.05150410050771226,"415":-0.057259033728643334,"416":0.020174010170501917,"417":0.030358578640952084,"418":0.003630103927049302,"419":-0.013773681688996297,"420":0.06365031761416347,"421":0.028100773666976733,"422":0.00605587259896785,"423":-0.012272336532424035,"424":0.005802626711462502,"425":0.058950183175043774,"426":-0.0060848160612340454,"427":-0.018257310132484203,"428":-0.010463157956440518,"429":-0.02085087454717062,"430":0.030598028660813497,"431":-0.004747218854102785,"432":-0.022918764240575932,"433":-0.004636224401806806,"434":0.02936684412570843,"435":-0.021963284118600112,"436":0.0009431791249157789,"437":-0.034373621140032874,"438":-0.027365209168332877,"439":0.058987645196281906,"440":-0.004009632010821964,"441":0.004333522835874571,"442":-0.021279384580654752,"443":-0.03502783052029318,"444":0.07470232356045449,"445":-0.01951561384781261,"446":0.0028340626516127746,"447":0.048575294456616375,"448":0.03366430798357792,"449":-0.0003669572216088274,"450":-0.045397426515443325,"451":-0.014230224277704694,"452":0.014669776506763809,"453":-0.04177350069921423,"454":-0.020247197605432466,"455":-0.005218666627336827,"456":0.016086912084705782,"457":0.028901177014212055,"458":0.04782355311235178,"459":0.024439538241689422,"460":0.026915414069688975,"461":0.01390249646817663,"462":0.0001267180632213618,"463":-0.029569570912450337,"464":0.007424432960200881,"465":-0.07673176746914868,"466":-0.012344123956745756,"467":-0.00794500754463468,"468":0.0036119713074843312,"469":0.007744594614420816,"470":0.019174266584333292,"471":-0.04627383722733406,"472":-0.04663367169779713,"473":0.09398455982389772,"474":0.0379784179301118,"475":-0.045579167417068134,"476":0.004427598090318061,"477":-0.030645659967710386,"478":0.08317425774379304,"479":-0.03288492652723027,"480":0.01909779393685796,"481":0.03943017753100552,"482":0.034007183322226756,"483":-0.021895193960233712,"484":0.010284655738928408,"485":0.020828036369466115,"486":-0.05382976637853215,"487":-0.006348151611276572,"488":0.038843333769030194,"489":-0.01338744961418991,"490":0.002680228303170534,"491":0.04572447602841584,"492":-0.008388928123716081,"493":0.024645182937364875,"494":0.044221187944459464,"495":0.022584422815254784,"496":-0.006589527452569948,"497":-0.09964528387915363,"498":0.007371613428566441,"499":-0.013121601434090573,"500":-0.04340812301491013,"501":-0.054834845421870955,"502":-0.023748970399358922,"503":0.09377163162132317,"504":0.021371807038333208,"505":0.01565745071281249,"506":0.041133613267920914,"507":-0.06406473416391237,"508":-0.02344056306375887,"509":-0.05451092457006798,"510":-0.01960637538110845,"511":-0.022963255507115806,"512":0.03138640178823976,"513":-0.0021287673253853135,"514":-0.03511872857500539,"515":-0.009995037945800547,"516":-0.02594772776712174,"517":0.042125066401664024,"518":-0.011173777423020361,"519":-0.01914363070748711,"520":-0.0010094581180742851,"521":-0.058791764827395336,"522":-0.009809676801958279,"523":-0.018028392134139995,"524":-0.02018402515572026,"525":-0.02358713187783577,"526":0.011467338702051324,"527":-0.08073203590253827,"528":0.01687794846362207,"529":-0.05531345796604241,"530":0.03937367108684707,"531":-0.03664561546575841,"532":-0.02719798044900551,"533":-0.05921528007427115,"534":0.006561991592489686,"535":0.0012893651335449117,"536":0.0050990435575850954,"537":0.05733311445062232,"538":-0.021736915465972867,"539":-0.030638110759285814,"540":0.03897538422643318,"541":-0.008044913637730954,"542":-0.03565829978661963,"543":-0.030034328246002544,"544":-0.0022276248188750295,"545":-0.04119005779324659,"546":-0.057759817203445786,"547":0.047643086816815235,"548":0.013567849400541681,"549":0.026197180305280714,"550":-0.014032727668954748,"551":0.04567885330709119,"552":-0.019444305472381122,"553":-0.00663814854565173,"554":0.03603712983731592,"555":-0.005820963284285553,"556":-0.034523043124685786,"557":0.0013159596854131505,"558":0.01754261086801563,"559":0.008213578406181987,"560":-0.02524318014031671,"561":-0.017083460264113164,"562":0.013233528128456596,"563":0.021629230414910685,"564":-0.04656076760449209,"565":-0.04823610667553967,"566":0.006987467780283955,"567":-0.008026095659033661,"568":-0.013848691385794065,"569":0.004136699674225238,"570":-0.05236878763222751,"571":-0.05432469490026067,"572":0.00518362124769901,"573":0.03183545216981954,"574":0.0395060164939462,"575":0.0656602549281705,"576":-0.01931603243680091,"577":-0.02951154398119524,"578":0.06900896510524969,"579":0.09175243764673433,"580":-0.055125445756628935,"581":-0.01251013301094838,"582":-0.0462759439822351,"583":-0.04654940300999494,"584":0.02537473758177517,"585":-0.0015203385335212918,"586":-0.05277353175475624,"587":0.041806173796761444,"588":0.017862663399412088,"589":-0.023374383039898496,"590":-0.012204317396540152,"591":-0.05859725390210274,"592":-0.029986420749509277,"593":0.0008369263038406344,"594":0.00831271987612521,"595":-0.011633682502209112,"596":-0.0006892839136588063,"597":0.028643677341450857,"598":-0.05080440683207047,"599":0.05941377992254676,"600":0.07521693208007524,"601":0.017773468197010187,"602":-0.015780602941187036,"603":-0.07445345550471934,"604":-0.0011390974809134266,"605":-0.015621362311673642,"606":0.0014652788499504455,"607":-0.015025908980086246,"608":0.004059151936381023,"609":-0.06155088578820306,"610":0.050112294536625676,"611":-0.00560384229191867,"612":0.033811118289401344,"613":-0.001493679498734794,"614":-0.038039059948620446,"615":-0.012943390748525426,"616":0.006888621404958506,"617":-0.07229488340627933,"618":-0.0015170583468111349,"619":-0.055173535360613216,"620":0.029402113490203483,"621":-0.05184924821669754,"622":0.015243785211639634,"623":-0.06640789501776832,"624":-0.045602024219856166,"625":0.06645141437971998,"626":0.016540327146864705,"627":-0.001125552348006772,"628":-0.008962351588235263,"629":0.023176786231912657,"630":0.015563714701902695,"631":0.062378541310335045,"632":-0.016139534963679803,"633":-0.08768360695405614,"634":0.014104325341847154,"635":0.03510582923744787,"636":0.000009091062113979817,"637":-0.01819496567650467,"638":-0.011021915132449182,"639":0.028405619312068305,"640":-0.04979698969962528,"641":-0.026315305113475483,"642":0.019393834335659322,"643":-0.055956442151651575,"644":0.03550313495429186,"645":0.017159335599303566,"646":0.040799589465759664,"647":-0.015728856918158493,"648":-0.00381574473063377,"649":-0.019363107422928412,"650":-0.03690657363097464,"651":-0.03532193954447873,"652":0.0651768088924484,"653":-0.02764126009084758,"654":0.03972279195724354,"655":0.026205703498825107,"656":0.09342707841953166,"657":0.058800472931898905,"658":0.04496923497410445,"659":-0.03422151339130399}},{"sx":1,"sy":1,"depth":660,"w":{"0":0.006780716444588523,"1":-0.006747660363183428,"2":-0.024652078822563806,"3":0.012109270420971404,"4":-0.031659491475778734,"5":-0.0004618749229688117,"6":-0.032999193211722865,"7":0.038382874716152454,"8":0.03892363424091108,"9":-0.009406219503180007,"10":0.009819244082913356,"11":-0.005894512339158992,"12":0.0763179492452842,"13":-0.01508652961081327,"14":0.02031477349258707,"15":0.0006768323229307945,"16":0.003908324752393888,"17":0.0568369090956258,"18":0.08246338374429588,"19":0.01687673640758097,"20":-0.006486154198683164,"21":0.009813213726682708,"22":-0.074157208809693,"23":0.04168218802583674,"24":-0.022984422165174136,"25":0.07316109839494069,"26":0.0244737567517209,"27":-0.05227611256157395,"28":0.013207954262118229,"29":0.03709503631026574,"30":-0.10700215895388657,"31":-0.015267872000665436,"32":0.07171081928890381,"33":0.01813526218277376,"34":0.01871375692633297,"35":0.04915862903001596,"36":-0.03009189395195641,"37":0.029458558211065976,"38":0.05505276254346358,"39":0.0010825023581211833,"40":0.04222270278555296,"41":0.04381126081855955,"42":0.000691836007862315,"43":-0.009932975095975863,"44":-0.014659260118560323,"45":-0.04671628560715588,"46":0.10952386550742998,"47":-0.007980839438451046,"48":-0.002801799504343919,"49":0.02988313231282972,"50":-0.050221482528681104,"51":-0.013467036340791372,"52":-0.03261933353838592,"53":-0.011056436186535321,"54":-0.01564323853179691,"55":-0.05086887424930818,"56":-0.026259844777126146,"57":-0.05489080143366894,"58":0.11624250055562564,"59":0.010900328806448515,"60":-0.03397699309571471,"61":0.009839352684435433,"62":-0.03265729227746125,"63":0.016420752277613183,"64":0.024601684873642143,"65":0.011540872370032892,"66":0.014909795541232031,"67":-0.05385859886127221,"68":0.03199948962581348,"69":0.04437512018960424,"70":-0.04325298923761444,"71":0.013570979187038082,"72":0.010325697370145716,"73":-0.013621422412887312,"74":-0.10672798062579475,"75":0.0016185018106676398,"76":0.05436788945793947,"77":-0.04038729197389212,"78":-0.006622159939110441,"79":0.022569737926057914,"80":-0.03305846751329122,"81":0.02541256628732723,"82":-0.0009658193007968928,"83":-0.030659991747295227,"84":0.0012227454570137117,"85":0.009219668443616354,"86":0.0158304937523977,"87":0.05326560215682562,"88":0.005751545533127129,"89":-0.004665319027051952,"90":0.021767162763170426,"91":-0.01257569403714243,"92":-0.022899797948377074,"93":0.04269974722275673,"94":-0.0024258067174974507,"95":-0.012400787893465872,"96":0.06985769383279267,"97":0.017436764909016772,"98":0.022840289844972307,"99":-0.045990854698015296,"100":-0.006617636411617118,"101":-0.03697659122109361,"102":0.04735243220804773,"103":0.044153468684503976,"104":0.0013575166898405966,"105":-0.04190434807507018,"106":-0.01600141139236453,"107":-0.00782671395407527,"108":-0.04599010603017197,"109":0.008999016555841316,"110":0.02412939700511646,"111":0.05776489481587833,"112":0.028254127465802244,"113":0.02808209814139968,"114":-0.0011655750374342214,"115":0.016552591102450366,"116":0.023357879342288824,"117":-0.032747837644988106,"118":0.04394945303386225,"119":0.020163862419726064,"120":0.010264974488802491,"121":-0.057403345549897,"122":-0.0007139497418478585,"123":-0.0361106591705304,"124":-0.09170455957260884,"125":0.05362180210093021,"126":0.02371650747284259,"127":0.046402835381196036,"128":0.05215339268357247,"129":-0.026117779690736212,"130":-0.018508504103687512,"131":0.01827734684272371,"132":-0.011415516293103892,"133":-0.05900421634344614,"134":0.06548495425750432,"135":0.009541913090823619,"136":-0.016413587999725573,"137":-0.006373417373086643,"138":0.0011369347598130756,"139":0.01691978186186861,"140":-0.044455353064601834,"141":0.0037487533367195547,"142":-0.034316695545830334,"143":0.06539539065249297,"144":0.039427965593961646,"145":0.009440072762918219,"146":-0.02689129147478732,"147":0.017806670114926072,"148":-0.022182858992012843,"149":0.013949878860388861,"150":0.05053979510655351,"151":0.058806145252004,"152":0.012979009916932788,"153":0.0006721250970111993,"154":0.06879175517953554,"155":-0.023545705568378084,"156":-0.02236227219690887,"157":-0.05397198834067074,"158":0.0064843249059123986,"159":0.01011332850619318,"160":-0.007807560216468337,"161":0.0056878383242599945,"162":0.02088217139342845,"163":-0.039483959661199476,"164":0.01824190080526552,"165":-0.061942186386567406,"166":0.02624160853459362,"167":-0.03644137381403294,"168":0.0702372197868519,"169":-0.0374298774915482,"170":-0.005048630131670265,"171":-0.05699702900536959,"172":0.009343590962373175,"173":0.040805348029465775,"174":0.003986984243433464,"175":-0.0012225628562597284,"176":-0.01784195533327427,"177":-0.007393460036531294,"178":-0.07808577401858681,"179":-0.01987454084373858,"180":-0.022019103551372297,"181":-0.11808964761043568,"182":-0.04387809414504584,"183":-0.05625346754509095,"184":-0.014671946006905053,"185":-0.03830494234203055,"186":-0.005526021573569147,"187":0.06677054284789367,"188":0.03618850067333508,"189":0.09755199611842075,"190":0.06036067626890407,"191":-0.02328915561345867,"192":0.04619045145567564,"193":-0.07697364641285558,"194":-0.0374259499768068,"195":-0.0114790434576998,"196":-0.01234600818835072,"197":0.014372953771779835,"198":-0.03435330975164125,"199":0.0027768133671494818,"200":-0.005920690377311502,"201":0.03269489227123584,"202":0.007196193956976096,"203":-0.06965544366002682,"204":0.044227780859306995,"205":0.03663054898133637,"206":-0.008381132528648796,"207":-0.025882289144316856,"208":0.05596447504040286,"209":-0.037219974519200706,"210":0.014881450373149814,"211":0.04784914624361002,"212":0.03531632254844172,"213":0.029584182000788984,"214":0.003966495467682777,"215":0.003615660244888502,"216":0.014353212633144138,"217":0.043818322167658255,"218":-0.04580331469068706,"219":-0.049969212665383164,"220":-0.012950190510942108,"221":0.08163647028177642,"222":-0.02643194560494292,"223":-0.03049351381631028,"224":-0.0056298782043871475,"225":0.0976075913011142,"226":-0.026523681859082403,"227":0.009300493989797836,"228":-0.007432195950207759,"229":0.00605013212420356,"230":0.040524797322138324,"231":-0.012131951572500231,"232":0.034573015370173016,"233":0.04079112822247063,"234":-0.019144117011069366,"235":0.013856860702025782,"236":0.0651717654834146,"237":-0.03189920631222625,"238":0.0389588525569245,"239":-0.04943888242882629,"240":-0.0517771277738965,"241":0.010633067412632981,"242":0.04368048122257291,"243":0.0352898862962245,"244":-0.014986517227780629,"245":-0.024113802135863265,"246":0.060931000994642166,"247":0.016191666530873637,"248":0.013196205346611338,"249":-0.03935427723661096,"250":-0.013095907125613057,"251":-0.032636726310709435,"252":0.023286152524643514,"253":-0.07096579768892633,"254":-0.011569685448205295,"255":-0.06823502021814826,"256":0.007523705579432278,"257":0.007111445903213515,"258":0.03764058292584962,"259":-0.014685047265412338,"260":0.0016038265247840379,"261":0.017721527743243766,"262":-0.008271091015074283,"263":0.012594849292462032,"264":0.07424600032970091,"265":-0.037137929646044746,"266":0.04138448700801864,"267":0.028034128871830443,"268":-0.020965667166234613,"269":0.030836032495430946,"270":-0.0005627444478194397,"271":0.02284902839653592,"272":-0.004516622468153478,"273":0.047439047904949086,"274":-0.028832064525932042,"275":0.01678043348413875,"276":0.03774244531732574,"277":-0.0104149747552078,"278":0.04692914643145312,"279":0.02904653119930356,"280":-0.013327982276450268,"281":0.028177681479872912,"282":0.026170907633232557,"283":0.04539740615565956,"284":-0.016167044223123674,"285":0.02935080592602067,"286":-0.006252697554771825,"287":-0.027236229013592402,"288":0.018534930315685774,"289":-0.012055794244341805,"290":0.008560625744180603,"291":-0.025209183969297493,"292":-0.005309524793541415,"293":0.03909442225828306,"294":0.024229491749305533,"295":-0.05770903272268881,"296":-0.013801642577549586,"297":-0.02519947013639822,"298":0.014168653021017889,"299":0.04077032911244254,"300":-0.04454760077149015,"301":-0.020230663964223645,"302":-0.04343893909624851,"303":-0.007110200841566516,"304":0.028368438775172616,"305":-0.04462133628326877,"306":0.016120619705763388,"307":0.04217565405305563,"308":0.015178022888819477,"309":-0.022939338772245604,"310":-0.005469318994319359,"311":-0.019518671296111394,"312":0.03809536795388686,"313":0.04570900087500444,"314":-0.05662374928694921,"315":0.05996647144981256,"316":-0.014882509721450296,"317":-0.0501643976181456,"318":-0.046059363592914356,"319":-0.04262778055076799,"320":-0.0687252466291315,"321":0.013621954358077896,"322":0.027777018964706707,"323":0.006867131797895947,"324":-0.06358907185608803,"325":-0.01488419077483703,"326":0.047143184598141576,"327":-0.0018923066879487141,"328":0.0020846418768561115,"329":0.051338234574713516,"330":-0.02003253152043941,"331":0.04540574088821369,"332":-0.0002596941479749382,"333":-0.0007404175235874362,"334":-0.09012912063759788,"335":-0.06963102411937898,"336":0.03216412168367807,"337":0.005341743201287466,"338":-0.060829120644761536,"339":0.009777364661677617,"340":-0.054882867333142446,"341":0.03876300157910435,"342":0.00041251171664316653,"343":0.027578336195518804,"344":-0.022161263618028493,"345":0.03980588357767765,"346":-0.01788474667934919,"347":0.024079712648126864,"348":0.024549517344447096,"349":0.028374573877754817,"350":0.022730093053023467,"351":-0.043181588197325003,"352":0.03715515555853243,"353":0.016006787513580187,"354":-0.045476569427170356,"355":-0.016874745237175127,"356":0.03797050403359681,"357":-0.010234421797493929,"358":-0.005873564374257336,"359":0.010958998609362135,"360":-0.03932098585172968,"361":0.04293514185964003,"362":-0.012788876669866181,"363":-0.08350638781957737,"364":0.05434277990925097,"365":0.08366003341042419,"366":0.030223940728130422,"367":0.0024360960712507666,"368":0.005229035288939102,"369":-0.07273425782148193,"370":-0.03642804039851377,"371":0.008148768142716655,"372":0.11345963976748835,"373":-0.013740729456005818,"374":-0.01511903041873063,"375":0.023432248045780795,"376":0.015128800070972366,"377":0.0035107729319470635,"378":-0.02103072380551961,"379":-0.0412506333613399,"380":-0.005840288968564264,"381":-0.010033876196926979,"382":0.0036303891756402735,"383":-0.024022954942731118,"384":0.05289597775177588,"385":0.005274071860345372,"386":-0.024735594972131875,"387":-0.06155069648373842,"388":0.035983981020675015,"389":0.027726177972074797,"390":0.04095547421993694,"391":-0.057187448923817094,"392":0.0356276212981467,"393":-0.022453921728769394,"394":-0.04891112732022531,"395":0.056813084905860206,"396":0.06208935831851759,"397":0.021870521366306184,"398":0.04372052855161397,"399":0.007575948847359985,"400":0.026746946385604733,"401":-0.0076901014800147115,"402":-0.036452207984965256,"403":-0.01702519593133669,"404":-0.046094137078455666,"405":0.0214656370154223,"406":-0.0014410754410287966,"407":-0.07829549342300696,"408":0.009990847096393614,"409":0.015958790416310684,"410":0.01713579595261924,"411":-0.037918012594246694,"412":-0.015989972714509394,"413":-0.042656531208728504,"414":-0.004661017653691078,"415":-0.08987278222753393,"416":-0.020870717712774014,"417":-0.05281052169330368,"418":0.06420710145428872,"419":0.00637037202310652,"420":-0.011408089482925644,"421":0.0022038989799299732,"422":0.010115748074708338,"423":-0.03012428627850755,"424":-0.033708882939278005,"425":0.013507256545649486,"426":0.017112108925428034,"427":0.05404527393463951,"428":-0.03282037054265055,"429":0.10253430028812732,"430":-0.07775493587184291,"431":0.0040892008623750345,"432":0.040784613235641726,"433":0.00017205463325161517,"434":-0.0036835641429965984,"435":0.04069920084090724,"436":-0.03380500043145263,"437":-0.027789260171689773,"438":0.015994275926620376,"439":-0.006336260036084746,"440":0.013031017732013444,"441":0.021234042065515327,"442":0.0032008418820638207,"443":0.0030113246035076546,"444":0.049451510399210766,"445":0.015627384986466868,"446":-0.09212762158339616,"447":0.047537946509499975,"448":0.05285729282744497,"449":0.047606855834555074,"450":0.056302886817224285,"451":-0.010751671183931043,"452":0.016028454661041358,"453":0.017915668576943402,"454":-0.0295936312047455,"455":0.04779444138813968,"456":-0.003388124436693667,"457":0.01735461636658173,"458":0.001998101136491596,"459":-0.0678579720856615,"460":-0.04009059010044144,"461":-0.034593978173596406,"462":-0.02124525801733612,"463":0.010415076903024739,"464":0.00730341220836739,"465":-0.039035785120138576,"466":-0.0120317032856258,"467":0.051350941840295324,"468":0.034908166255248466,"469":0.07496236317806265,"470":-0.04226773566999542,"471":-0.022349062299640912,"472":0.05557569132086112,"473":-0.03676225870785841,"474":0.01614012789159942,"475":-0.027661666957846234,"476":0.03138832309997636,"477":-0.0548126975472058,"478":-0.002757779890691002,"479":-0.031669091086298624,"480":0.05314507929726242,"481":0.015240083363933538,"482":-0.027360183427375825,"483":-0.008918053224930146,"484":0.007687928454440484,"485":0.06871567932604417,"486":0.021352996097409396,"487":0.013000246703619654,"488":0.08480246115527644,"489":-0.006705579074527863,"490":0.06737933233848269,"491":0.04727102142631767,"492":-0.060195905781014546,"493":-0.01256744862428927,"494":0.04515768129168026,"495":-0.0021640607602624253,"496":0.013863128661082335,"497":0.00190410256536232,"498":0.005666768870840869,"499":-0.027656368902078874,"500":0.03531476918212675,"501":0.03172225248516105,"502":0.004247278734226562,"503":-0.010333978994648699,"504":0.05052766685721934,"505":-0.03330975040781565,"506":-0.0147326809347778,"507":0.010548449750397763,"508":0.030660879368378996,"509":0.0157284914127253,"510":-0.05793346638492037,"511":0.033992884182173756,"512":0.06167533043399146,"513":-0.013669660934043782,"514":-0.05361244453048592,"515":0.024968260593339286,"516":-0.08261065804313951,"517":-0.03565496162683946,"518":0.025669729223187894,"519":-0.03026144445421815,"520":0.018546611074811432,"521":-0.07064738632928923,"522":-0.06434990020964523,"523":-0.0009182673092940289,"524":-0.03552659252307064,"525":-0.03669144294070779,"526":0.03032511192849668,"527":0.03251234108920192,"528":0.026696499131415075,"529":0.0018308553706661162,"530":-0.00571729735892911,"531":0.006650973027319319,"532":-0.032106390815507105,"533":0.008847224701585166,"534":0.015114097314519985,"535":0.0017444564090928012,"536":0.046055140680429395,"537":-0.02411972990634344,"538":-0.006185954792181986,"539":0.014642276195345937,"540":-0.018069127434399365,"541":-0.030652886400941822,"542":-0.08248748214438617,"543":0.0005086620277037008,"544":0.01990885599325454,"545":-0.05355148838032748,"546":-0.0030682766998107644,"547":-0.029064789449872314,"548":0.0021538232692817905,"549":-0.04353911581925993,"550":0.025897199221519746,"551":0.038447559196677215,"552":0.07871129046100626,"553":0.0006550679260135868,"554":-0.06094039343437916,"555":0.01354098947178415,"556":-0.0070548880991002485,"557":-0.018995965322471085,"558":0.06214888675750988,"559":-0.06719404502698789,"560":0.017146484918920495,"561":-0.04846408603293183,"562":-0.011544023080693161,"563":0.030191573254810793,"564":0.0014978031599420121,"565":-0.005173730023654027,"566":-0.053147429107493614,"567":0.0951818739365866,"568":0.019082371398149306,"569":-0.052615765981770674,"570":0.021914007869766362,"571":0.05475965294910082,"572":-0.014150141932211724,"573":-0.02053851377628868,"574":-0.028975846702995415,"575":-0.0522448391000221,"576":0.08541142282009406,"577":-0.013457217033704344,"578":-0.0537668670603223,"579":0.007532283151754541,"580":-0.03772330028095584,"581":0.003218386721772854,"582":-0.03676794517626351,"583":-0.04852569122924326,"584":0.018693388353205272,"585":0.07575847006180085,"586":-0.024120719976327618,"587":-0.006612218525955497,"588":0.054265409980919506,"589":-0.05094999042228948,"590":0.003573879447079897,"591":-0.012412341096333575,"592":0.08972982335452813,"593":-0.004205318493487936,"594":0.034082121308356396,"595":0.07188737674590587,"596":0.021036193191638967,"597":0.015535480549495212,"598":0.06395848765633333,"599":-0.030106010608754303,"600":-0.05369917254060645,"601":0.059132570097330486,"602":0.06880259527670488,"603":0.019417206823734597,"604":-0.03044561154427852,"605":-0.004931610543947214,"606":-0.05773642744527029,"607":0.018215736661440364,"608":0.006112440270567263,"609":0.049039657205185334,"610":0.00976427799677624,"611":0.03857635074157028,"612":0.06336369769839488,"613":-0.07717154033961167,"614":0.011991568293386354,"615":0.030266507851994966,"616":-0.0015441879698879209,"617":0.018453109017351605,"618":0.022873315700782375,"619":-0.01137352799538186,"620":-0.001022308605268309,"621":-0.03509135639027506,"622":0.0668584516265471,"623":0.05606127643557185,"624":0.034490637486476565,"625":0.011607546025242336,"626":-0.03525892818222686,"627":-0.0036184877821996675,"628":-0.012316652203009504,"629":0.026134079331945316,"630":0.03378766550795287,"631":-0.00601276057353348,"632":-0.01907856741688651,"633":0.10893176398182258,"634":0.01824123818349776,"635":-0.04183162852328025,"636":0.12821627398518326,"637":0.0012374870893309203,"638":-0.00689854975783217,"639":0.04339203738445304,"640":-0.05177448188254129,"641":0.02870637223546325,"642":0.0922348541858003,"643":-0.02402985487287349,"644":-0.0005665781443827793,"645":0.015428707785186051,"646":-0.05376798123063918,"647":0.06305966746811276,"648":0.005683443859961411,"649":0.05860880599247683,"650":0.02054415304479957,"651":0.05594517100799834,"652":-0.017344937069627902,"653":-0.0023003026435128903,"654":0.012995792580936982,"655":0.020358101914491406,"656":0.010069987586157965,"657":0.07537304050035956,"658":-0.0472542466384454,"659":-0.021838836247895448}},{"sx":1,"sy":1,"depth":660,"w":{"0":-0.06357714679809412,"1":-0.058697774733637215,"2":-0.04314490807451231,"3":0.014652424828428481,"4":0.05366386896204275,"5":0.020998208004844712,"6":-0.03242321442362538,"7":-0.06516417840912221,"8":-0.049035577383526104,"9":0.02343901999441099,"10":-0.013355315513387329,"11":0.008761856679833436,"12":-0.02192996039127305,"13":-0.03444521852065833,"14":0.02581620073588683,"15":-0.03050830199413238,"16":-0.02977393908319542,"17":0.06757433296512448,"18":0.06960316806930357,"19":-0.0208259628302995,"20":0.00787991935587739,"21":-0.002939621014188025,"22":0.01986283174822943,"23":-0.028080684492075556,"24":-0.08647723760523467,"25":0.0313670613011689,"26":0.0369253006714214,"27":-0.029367650904851616,"28":-0.033590558743285356,"29":-0.05203728452870252,"30":0.004166337881360094,"31":-0.030270021769437442,"32":-0.020565623818151416,"33":-0.011904372087018165,"34":0.036674177739055375,"35":-0.04484956446108998,"36":0.021213979675112078,"37":0.02348943858566463,"38":0.013579944781986198,"39":0.0000070222950720522115,"40":-0.03316144138048076,"41":0.06086424846945111,"42":0.034641451059911996,"43":0.06127558794288434,"44":0.0513270270097623,"45":0.041830097619580946,"46":-0.011573719675908412,"47":-0.001408762227911943,"48":-0.049155255051272384,"49":0.02131176948918712,"50":-0.05636720466654685,"51":0.003578365106120425,"52":-0.020630858584207316,"53":0.05138824333111857,"54":-0.04724967189466729,"55":0.010382368901267413,"56":0.027768783157396473,"57":0.02444702998887417,"58":-0.023238881457506664,"59":0.026000207484609496,"60":-0.02077498699047113,"61":-0.029600337284989627,"62":0.021112890838690127,"63":-0.007727575790216048,"64":0.01949670221436596,"65":-0.023511400745208844,"66":0.04626883465284293,"67":0.010423993533831702,"68":-0.03401627528383737,"69":0.04068247712750336,"70":0.05298570135987813,"71":0.033362474033914534,"72":0.0690602817398646,"73":-0.0507210371975147,"74":-0.002173587168254199,"75":0.06861369840903733,"76":-0.012729725264018365,"77":0.010788806768631854,"78":0.021935382656392,"79":0.017634826696864687,"80":0.07029232861931548,"81":0.0028508397061151667,"82":0.03862548312212834,"83":-0.001419917601393536,"84":-0.01270718109644459,"85":0.04670150212747708,"86":-0.011426955012745774,"87":-0.029572811964156263,"88":-0.004923656221075903,"89":-0.02565873600434439,"90":-0.024218380424672947,"91":0.028412571506143222,"92":-0.03171287713789608,"93":-0.04420428696113501,"94":0.10219492398065784,"95":-0.04494693342114938,"96":-0.04317540411814824,"97":0.030610106298664792,"98":-0.07871271377225778,"99":0.004381290534747616,"100":0.008842852725898659,"101":0.06631093552579816,"102":0.09401736865087343,"103":0.0718502331130507,"104":0.01767428937544312,"105":0.02290000211884613,"106":0.02382709246600816,"107":-0.023928535845329797,"108":-0.028263822750301433,"109":-0.020562333887229625,"110":-0.0710491141195858,"111":-0.06591693084571137,"112":0.0013913311750084808,"113":-0.021562970261915237,"114":0.017958573685381063,"115":-0.0610411073758935,"116":0.04260333567805014,"117":0.03686948980352108,"118":0.010714246885431513,"119":0.03239460341090292,"120":-0.0009785138825266926,"121":-0.006967335430343636,"122":0.04762318163210105,"123":-0.02317273833893173,"124":0.02021714883704683,"125":0.12582532191150908,"126":-0.03971990060495756,"127":-0.08936555677004712,"128":-0.07469647210953659,"129":0.011864426378571385,"130":-0.011306197864457797,"131":-0.07603442988416277,"132":-0.006838430304382185,"133":-0.07505689954501542,"134":0.012764942951849396,"135":0.0648895938954223,"136":-0.02505817551308691,"137":-0.05693576001993193,"138":0.04590699398857448,"139":0.08608880934244449,"140":0.011167922277619128,"141":0.017945369517016654,"142":0.0027245894879699122,"143":-0.03435161793189235,"144":-0.023706220118767163,"145":0.04077632297342162,"146":0.022535050752589096,"147":0.028408319950087618,"148":-0.05293108423294799,"149":0.010886409700465753,"150":-0.07557207600792647,"151":-0.022969022102550387,"152":0.0005760539982572129,"153":-0.08150122196224956,"154":-0.03842351412793247,"155":0.016292119371153727,"156":-0.04672347403758939,"157":-0.005216133256685919,"158":0.035143896992454605,"159":0.01383759407495131,"160":0.014659934091584148,"161":-0.022353317577821576,"162":-0.009723424397839119,"163":-0.005159074809914137,"164":0.03715691907051984,"165":0.03692438149033296,"166":0.003812330800908938,"167":0.0854725759254793,"168":-0.03773639593695634,"169":-0.03855554168731341,"170":-0.008864206267459701,"171":-0.018415297584695373,"172":0.002252763051373437,"173":0.08891713688337048,"174":-0.022732893383366218,"175":-0.05694238761563589,"176":-0.02640607602915108,"177":-0.014240875486850501,"178":-0.01368328796350779,"179":0.021289204396200374,"180":-0.007046100876803166,"181":0.025295961303059493,"182":-0.0017795507398535343,"183":0.030443087122295032,"184":-0.05352224280479793,"185":0.04513050473617353,"186":0.050179039741616846,"187":0.027817444347833117,"188":0.06639452425587142,"189":-0.049260580474310436,"190":-0.03137460873285974,"191":-0.013769026637031816,"192":0.008298524982626296,"193":0.036087686108596584,"194":0.0037221075101389043,"195":0.02356800442959879,"196":0.05122225280813724,"197":-0.004538788990500977,"198":-0.02094835388354414,"199":0.021661399970125776,"200":0.01728886990087733,"201":-0.06421627862191559,"202":-0.00784471057031226,"203":-0.03664287346458802,"204":-0.0033668314240308814,"205":-0.016787818159866373,"206":0.02651099166211597,"207":-0.06886523346055407,"208":0.11178408002712922,"209":-0.010148750079373655,"210":-0.010087210162006569,"211":-0.009167178180853353,"212":0.08250609824984957,"213":-0.029687441749668666,"214":0.011357737963544633,"215":-0.004039022114392515,"216":-0.04292487545335392,"217":-0.06776853548289724,"218":-0.04690360923975203,"219":-0.010501020234761363,"220":-0.05583156039211939,"221":0.019960624503460863,"222":-0.009001314477723368,"223":-0.05255005848334264,"224":-0.013640220763813727,"225":0.03437964924608122,"226":-0.00760592422081921,"227":-0.015521690733006058,"228":-0.03922921815024972,"229":0.01990095105893553,"230":-0.010317530743658031,"231":-0.024834677569440074,"232":0.057878446179486606,"233":-0.02687334967292073,"234":0.013019231950696923,"235":0.07317081723025746,"236":-0.004762672825007829,"237":-0.01009037252724951,"238":-0.04854883247490807,"239":-0.0017293041376514105,"240":0.0034473730405321793,"241":0.019878208326102716,"242":-0.02370936556738108,"243":-0.04827395066184972,"244":0.06297502801858176,"245":-0.04852619659520168,"246":-0.02529787472398723,"247":0.025141386671078805,"248":-0.03724439182704921,"249":-0.03362049971137021,"250":0.012287895397017443,"251":-0.03283864833077933,"252":0.01182354146180197,"253":0.034416503428622215,"254":-0.08238078626093169,"255":-0.041643274349738,"256":-0.01613254121933267,"257":0.023002313796358604,"258":0.06744672960259813,"259":-0.0069977527840243145,"260":-0.02108417219285458,"261":0.02242996591315276,"262":0.052034608848878894,"263":-0.05214799073735891,"264":0.010921110898456004,"265":0.056900981986875786,"266":-0.05178410486590796,"267":-0.07178711293572723,"268":0.04431536232479716,"269":0.055986757703296156,"270":0.01992593256817546,"271":-0.061129548599171905,"272":0.025983144180943954,"273":0.02995966294034894,"274":-0.01998137687550193,"275":-0.03660505624104946,"276":0.026608004526359755,"277":0.0070921171758807884,"278":0.03424510278970564,"279":-0.0063165481741243494,"280":0.04271108280396188,"281":-0.03185193128588192,"282":0.026546095660686435,"283":-0.09751665478711996,"284":-0.006233709221529087,"285":-0.027589856417484224,"286":0.012409941584988366,"287":-0.04981995501590679,"288":-0.034728780662820743,"289":-0.008139997122721091,"290":0.06441089400842055,"291":-0.019174783481726174,"292":0.025445639034453158,"293":-0.06038762212208876,"294":0.011320819602737035,"295":0.0022234475322335523,"296":0.09782287576876729,"297":-0.013059579730126938,"298":-0.01727983691909999,"299":-0.037608740930319406,"300":-0.01380644264421685,"301":0.021195864839926727,"302":-0.019928844212337732,"303":-0.04687545256329321,"304":0.05119371750350942,"305":0.011937863449577207,"306":-0.03879379991152493,"307":-0.055729139919073606,"308":0.022430850849467016,"309":-0.01911327057289827,"310":-0.007920048794495578,"311":0.025747029875994303,"312":0.1172848757776913,"313":0.012853597881281018,"314":-0.01933691080164998,"315":0.001645489955422499,"316":0.009019612073831477,"317":0.04668156292933138,"318":-0.024134203090861645,"319":-0.07346160113990076,"320":0.0524789602160971,"321":0.004948050212330424,"322":-0.008231708321348202,"323":-0.028867611979294633,"324":0.01988875705366007,"325":0.043552015394424874,"326":-0.005297234777081712,"327":0.00867933982065543,"328":0.048673739536369304,"329":0.07304562367604517,"330":0.00810313024263904,"331":-0.03493600013083342,"332":0.03042553848722235,"333":0.02837943913882276,"334":-0.05352966806785753,"335":-0.010493301348577825,"336":0.020684582320331643,"337":0.025115247131429066,"338":-0.04838329237283524,"339":0.04252849448579506,"340":-0.010900914781575137,"341":-0.04039244220715527,"342":0.014446978869507089,"343":-0.0912675719078107,"344":0.08846465756760183,"345":-0.008625308515761236,"346":-0.010332028583630758,"347":-0.036731820665510055,"348":-0.008314983617529373,"349":-0.057952997793372464,"350":0.03484855919102711,"351":-0.035098731908219515,"352":-0.06292470976707261,"353":-0.01174263341970703,"354":0.00511247787579721,"355":-0.015515965445710515,"356":0.062489366441064294,"357":0.04759560412851622,"358":0.010912002712371957,"359":-0.004990288707042136,"360":-0.06631819953604987,"361":0.019825485514757386,"362":0.0029298192743912616,"363":0.05260566018595213,"364":-0.006622783328053712,"365":-0.053704186803920466,"366":-0.003784526566508604,"367":-0.023683868604660704,"368":-0.04779868300008794,"369":0.032288505950287094,"370":-0.016940608379997123,"371":-0.0699903301034977,"372":-0.0029386326873243294,"373":-0.03406893583489011,"374":-0.052044513630183586,"375":-0.005615651494214034,"376":0.061678821769600024,"377":-0.05696011819002474,"378":-0.051837513889465336,"379":-0.03128250779336753,"380":-0.05139331536922103,"381":0.019221229879399632,"382":0.010846436958825438,"383":-0.005928168836348557,"384":-0.05764123102140102,"385":0.012036274719630003,"386":0.007072003016307064,"387":-0.012734983687445717,"388":0.052740411014212896,"389":0.0661440707376466,"390":0.013139095745960696,"391":-0.057746465499794564,"392":-0.012965892268764117,"393":0.02812828675612505,"394":-0.0037545730907610265,"395":0.04552381573941932,"396":0.027240801122077635,"397":-0.03521649391730574,"398":0.013301140825252241,"399":0.07242078906838806,"400":0.048179711350473324,"401":0.0011413305909746853,"402":-0.024382170602963476,"403":-0.01844927459727887,"404":0.04768312635200467,"405":0.041429882729708205,"406":-0.02067487371870672,"407":-0.06699006063255716,"408":-0.018797078841487895,"409":-0.07604447178176336,"410":-0.01493136458666768,"411":0.03380408180189285,"412":-0.04868953641393055,"413":-0.041038459506110805,"414":-0.06576585685991938,"415":-0.02086308214068667,"416":0.06375311227166847,"417":0.09474740809971101,"418":0.005254080592909501,"419":-0.0033752828384478344,"420":0.031541354620047715,"421":-0.0035551506587402624,"422":0.005071463034160985,"423":0.005928518886848981,"424":0.0709993077774054,"425":0.019888340791406153,"426":0.07405004945582816,"427":0.06642518548406458,"428":-0.002583969463309553,"429":0.009157135938238631,"430":-0.0024173758061127927,"431":0.03459953172655365,"432":-0.05509667827166339,"433":-0.05438321543007551,"434":0.07157292199400905,"435":0.07840517061132646,"436":0.003558955172966229,"437":-0.030418670979881848,"438":0.026720610893556245,"439":-0.010854596462118279,"440":-0.013651739318423672,"441":-0.01327530910445353,"442":-0.023058722326501458,"443":-0.011343116269166204,"444":-0.052460063680150416,"445":-0.05173320717777093,"446":0.04672819781953626,"447":0.02450717566799774,"448":0.032923870663284636,"449":0.008867689517186046,"450":-0.033238917875700554,"451":0.04888450372224333,"452":-0.0010394946349517233,"453":-0.049102858742567194,"454":-0.039204215415029844,"455":-0.009637133897477194,"456":0.012430300993146041,"457":-0.05591867932708613,"458":-0.013931349208740559,"459":-0.013469233220648026,"460":0.026846827542087854,"461":0.08381952193597288,"462":-0.025747804175055525,"463":0.02787691332943376,"464":0.03096704351385453,"465":-0.010183917580553023,"466":-0.040794041477661636,"467":0.040914293013210645,"468":0.051253446967363336,"469":-0.005471372890689942,"470":0.013055714656738887,"471":0.028508848766818556,"472":-0.006842581926802989,"473":-0.047717662389482184,"474":0.01481657416500511,"475":0.00834513255658265,"476":-0.04855885717695173,"477":0.0032850925084819127,"478":-0.0170525858892513,"479":0.021322501738873775,"480":-0.0021886469866216752,"481":0.02601998663127748,"482":0.029952214280583027,"483":-0.018897544205827517,"484":0.0061843979373478715,"485":-0.019242591307763013,"486":-0.02237094702350325,"487":-0.0071453707138399766,"488":0.00348209284743077,"489":-0.08317799957112948,"490":-0.0024962554116172136,"491":-0.033152066797482053,"492":0.02686316186871444,"493":-0.007359162155218902,"494":0.029226837621339475,"495":-0.008047379808221154,"496":0.056034200162843974,"497":-0.03647475996842267,"498":-0.03874795675724752,"499":-0.022882433108810586,"500":0.000344661958795562,"501":0.02752705025435438,"502":-0.048405617327029325,"503":0.04199006721693862,"504":0.03524936369350256,"505":0.010238638702365348,"506":0.04036743985552473,"507":0.013151620506834232,"508":0.01600432934420997,"509":0.07142962997344406,"510":0.013437608673911996,"511":-0.011677404388106806,"512":0.07380313003410385,"513":-0.02994428187154318,"514":0.0014837110483891058,"515":0.03289431308238386,"516":-0.0837734639728157,"517":-0.03337529516410089,"518":-0.021467121998576737,"519":-0.0270281980138457,"520":-0.027048372376609627,"521":-0.0011678169064981826,"522":-0.01222842724198356,"523":-0.06250992795876549,"524":0.003847181344310658,"525":-0.053367039260806395,"526":0.0361317397423624,"527":-0.03710527349377668,"528":0.013038410217158632,"529":0.06833048870945183,"530":-0.021100783760553767,"531":0.11220420709833487,"532":-0.04406437801804394,"533":0.03273565206761488,"534":-0.06828935261111327,"535":-0.002097874238171199,"536":-0.02520733202496841,"537":-0.035461817279137234,"538":-0.016843104314294453,"539":-0.03043663619819635,"540":-0.008751271421588236,"541":0.02545178704235655,"542":0.12142446081789793,"543":0.044844786164737964,"544":0.016671432756497656,"545":-0.009609011948928377,"546":0.03791697568401764,"547":-0.0874188370910876,"548":-0.05793211636647026,"549":0.01359519702740109,"550":0.0552066610992107,"551":0.01332925583108509,"552":0.0395330209299175,"553":0.06329446629238533,"554":-0.07196222124764422,"555":-0.02788998097901953,"556":-0.06956184916561961,"557":-0.02961820077141237,"558":0.05810049886865295,"559":0.027143919923861035,"560":-0.02985434461551551,"561":-0.005604882879012788,"562":0.009341985196050782,"563":0.00009153909641019646,"564":-0.04659275220615384,"565":-0.0015996187724979247,"566":0.0606134315922464,"567":-0.03392256793827799,"568":-0.02075916009981218,"569":-0.029484215324105646,"570":0.06300448566677976,"571":-0.03545287799050252,"572":0.018688105992931112,"573":0.017481262874389166,"574":0.025016983125848543,"575":-0.061753814561010575,"576":0.03076726169725436,"577":0.003697737748309834,"578":-0.06505851081459783,"579":0.055480999993976834,"580":-0.027431536644425963,"581":0.02152051319381393,"582":-0.008400127195318954,"583":0.010293031357781597,"584":0.034610474985887776,"585":0.04000887918663275,"586":-0.08005011892831486,"587":-0.057903281576821605,"588":0.040271804969354966,"589":0.05327664756917868,"590":-0.04262906720554419,"591":-0.03441820754220199,"592":-0.041515817860933654,"593":0.049399536370280384,"594":0.01831277769268844,"595":-0.012450472919290434,"596":0.0426494001691507,"597":0.028441004446757387,"598":-0.014467557158876841,"599":0.007322675934006321,"600":0.0371017044992328,"601":-0.08202311699524097,"602":-0.011742108114123628,"603":0.019909649965596576,"604":0.0052628018997459705,"605":-0.034809474639740406,"606":-0.028161830950491244,"607":0.05907477991606622,"608":0.052544625919642395,"609":0.08408626427025256,"610":-0.011153127989984196,"611":-0.032206898997222594,"612":-0.03370410172031574,"613":-0.09252697921476571,"614":-0.03491003845286258,"615":0.011563291688942337,"616":-0.06254689360680314,"617":0.015709222325096927,"618":-0.014436442050642755,"619":-0.03538601251637611,"620":0.007247515987161092,"621":-0.03288028424168507,"622":-0.05738712896530162,"623":0.007993833194685454,"624":0.039580103374514716,"625":-0.02565460292373472,"626":-0.01376445708114306,"627":0.013357301526925061,"628":-0.0262879582880868,"629":0.03772124783571708,"630":-0.0592733302465565,"631":-0.03775789527974543,"632":0.009659667736984278,"633":-0.03576551942503748,"634":0.018480103571310066,"635":-0.006573238137696361,"636":0.04471649918255828,"637":-0.03726430482290614,"638":-0.012123256778215463,"639":0.05587541950662486,"640":-0.004610658555172105,"641":0.10532841621745292,"642":0.0815564543382233,"643":-0.04789978166080786,"644":-0.0067470459261545525,"645":-0.05157088781137571,"646":-0.08115848153348104,"647":0.02143289061845751,"648":0.017647895791570858,"649":-0.0345561063784464,"650":0.03474883890740086,"651":-0.0024355096737244094,"652":0.07475543846397995,"653":-0.05404423595220039,"654":-0.0031288264277318017,"655":-0.01029279075361375,"656":0.0068096592889076045,"657":-0.0022189824727949664,"658":-0.03390915936441167,"659":-0.011349457798442578}},{"sx":1,"sy":1,"depth":660,"w":{"0":0.06484994670610339,"1":0.040184942109965774,"2":-0.04083887978754328,"3":0.04134333961120466,"4":0.01783425596912032,"5":0.015415041179316755,"6":-0.0067033578999265864,"7":0.01094390970268599,"8":-0.005058346171059456,"9":-0.0578560782889506,"10":-0.014209621158625306,"11":-0.026891242991480765,"12":-0.03609240795417309,"13":0.005945553948180833,"14":-0.02186652875541047,"15":-0.055095803960592875,"16":0.02775668738220112,"17":0.039005146035257704,"18":0.05608526335663061,"19":-0.01218772952433065,"20":0.028009440062135533,"21":-0.012726844782588266,"22":-0.05929212592424908,"23":-0.0036619484473128846,"24":0.049033208701611895,"25":0.07346416499075713,"26":-0.01342137398704727,"27":0.004488053907466575,"28":-0.054905164337751604,"29":-0.005809121131937744,"30":0.004775956947157789,"31":0.0198500004848174,"32":-0.03880864127286462,"33":0.034968518771307744,"34":-0.02002937754409406,"35":0.0338098200279351,"36":-0.08748137000280963,"37":0.09238694668365431,"38":0.014443584009780354,"39":0.04243425109573762,"40":-0.030462273196584486,"41":-0.031069488992994672,"42":-0.04788354475716432,"43":-0.017768046236323026,"44":-0.07259635702056914,"45":-0.07814461330328154,"46":0.0017726666454512693,"47":0.016452877680588753,"48":0.05287083529284988,"49":0.002746939311886688,"50":-0.03620574278087199,"51":0.011454602518453186,"52":-0.006946874981647669,"53":0.05175632654549401,"54":-0.0032733310044608583,"55":0.008069054178916428,"56":0.024395976151812424,"57":-0.035388106832619476,"58":0.006967936234163681,"59":-0.021449279665077595,"60":-0.026979348031219864,"61":-0.024283093767593054,"62":0.037819847238738144,"63":-0.04116234385963379,"64":0.00735799839753892,"65":-0.014985615767044321,"66":-0.01538684379267612,"67":0.04184598276341688,"68":-0.032533561349815526,"69":-0.03341767670653811,"70":0.04911942488375131,"71":0.03444871420128773,"72":0.052042683585885395,"73":-0.016326121652154118,"74":0.08118008308211401,"75":0.047427692720632304,"76":-0.013093595856279153,"77":0.07792283585935794,"78":0.008786027154087002,"79":-0.035946395280021255,"80":-0.027762907723909613,"81":0.046605058881220074,"82":-0.022833404623590382,"83":-0.07048360943780034,"84":0.035436932057325496,"85":-0.023675679211474496,"86":0.024569780299047005,"87":-0.05457912687391313,"88":0.04203713682271568,"89":-0.017542668991509792,"90":-0.01132486348042355,"91":0.020813162718319317,"92":-0.038719896932363926,"93":0.043586053899895366,"94":0.010244670456226748,"95":0.035864259652144466,"96":0.021228001414450852,"97":-0.058775061730065095,"98":-0.045394379436381124,"99":0.07446695289368685,"100":-0.04537711107108663,"101":-0.046018328361699286,"102":0.06942648188332876,"103":0.07926157268791714,"104":0.03436513783414069,"105":-0.022204017819428438,"106":0.023841533915320498,"107":0.014257917074731606,"108":-0.0577608051728909,"109":-0.0033838005484953275,"110":-0.0531559931606607,"111":0.002805052124953938,"112":0.03184350386755844,"113":0.003017808765943512,"114":0.044810600616605724,"115":-0.015005215545202646,"116":-0.010691266129514026,"117":-0.010022103657085574,"118":-0.022850453419964712,"119":-0.030626627614236297,"120":-0.020310946522029836,"121":-0.04006674543502477,"122":0.0004251380662497105,"123":-0.02467630940094119,"124":0.003187835015972783,"125":-0.0052799087503806715,"126":0.025034010538690383,"127":0.009753975837477544,"128":0.009114903980861995,"129":-0.011900617724507522,"130":0.029816923682725295,"131":0.05276445826948053,"132":-0.05271645173769058,"133":0.008439440346395122,"134":-0.06135542685867713,"135":0.03671050643861375,"136":0.01689639079013188,"137":-0.04007367634814522,"138":0.05573272258385666,"139":-0.011527808359149645,"140":-0.030383221563114075,"141":-0.022280173933356292,"142":-0.03419523925865943,"143":-0.006285798555750595,"144":-0.008241235625296042,"145":0.0228711558700301,"146":0.006768678049811913,"147":-0.02033428749114858,"148":0.04321690191262135,"149":0.021489022347899022,"150":-0.0009261070529819629,"151":-0.02765797981880105,"152":-0.019560150548933588,"153":0.02083530493379272,"154":-0.0320727458991884,"155":-0.010411596176364188,"156":0.06274389578063931,"157":0.0771575678274222,"158":-0.030412153675818704,"159":0.0664900545974038,"160":0.03318109141077814,"161":0.06345214037987155,"162":0.040719089242510276,"163":0.06386283015955341,"164":-0.00398500960001857,"165":0.017360654161862762,"166":0.03693479185840391,"167":0.0071349603277956,"168":-0.005700051188656372,"169":0.03546030951890276,"170":-0.016418809149326617,"171":0.012994853732995668,"172":0.03014431162203072,"173":0.06608673245265899,"174":-0.043434737654683794,"175":-0.0000896460579998307,"176":-0.016098852097220683,"177":0.038503786483247766,"178":-0.018555770992994793,"179":-0.06825879586417621,"180":-0.03977086644958054,"181":-0.09299703643281645,"182":-0.013142038784025731,"183":-0.029450949949682306,"184":-0.025181314951821965,"185":-0.021980230824994628,"186":0.008927066863863338,"187":0.006207446354587554,"188":0.009131291068576455,"189":-0.03719255592554373,"190":0.00859786592454447,"191":0.009977268886266656,"192":-0.07117095970733425,"193":0.007161836499112692,"194":-0.01837380695858614,"195":-0.06067039660806323,"196":-0.09005748570047636,"197":0.06201509560120696,"198":-0.04862213839302658,"199":0.010312087250506046,"200":-0.0212257628720996,"201":0.004994155808064345,"202":-0.014769068858367887,"203":0.01982637432145442,"204":-0.010376467135095964,"205":0.0158893230786943,"206":-0.016750594001000544,"207":0.0011596064791112891,"208":0.013573675242002755,"209":0.0019817466308244248,"210":-0.02881849092685592,"211":0.016763494990066487,"212":-0.005493766860612307,"213":-0.007699681283388924,"214":0.03956131576819034,"215":0.07320797146104675,"216":-0.01832862782460655,"217":-0.1004956763785766,"218":0.000764526553120548,"219":-0.05490450279939245,"220":0.004857951939077371,"221":-0.0390341030849228,"222":-0.06773998160683171,"223":0.00394137063976872,"224":0.017658390254510613,"225":-0.035061781009399516,"226":0.027348286229543974,"227":0.026044402370571894,"228":-0.011693563424738035,"229":-0.005182092281191109,"230":0.005193763212580204,"231":-0.018070133453259987,"232":-0.04125074144142633,"233":-0.025738224986752628,"234":-0.0803929658213141,"235":0.041918559909017335,"236":0.03953258294424724,"237":-0.08153073121246167,"238":0.04045244748654965,"239":0.004513619173836017,"240":-0.030443654022652946,"241":0.04261941850075339,"242":0.0055237383473988036,"243":0.022944366140012985,"244":-0.04519978925474126,"245":0.0655517885879855,"246":0.004843151491913474,"247":-0.03650256729135404,"248":-0.005591832598405505,"249":-0.010233514868755357,"250":0.012161264371126043,"251":0.04950859436178488,"252":-0.036999591919531984,"253":0.006091951864798829,"254":-0.020210026239588386,"255":0.0023041461897759146,"256":0.06796451807254937,"257":-0.0352569394596575,"258":-0.026547918469189052,"259":-0.030094911498567176,"260":0.020923976781548625,"261":0.07095872379872113,"262":0.045548301713159184,"263":-0.03422780460149012,"264":0.030978083981702847,"265":-0.011844235608816624,"266":0.0305838978875409,"267":-0.011561378367119225,"268":0.008029710576101296,"269":-0.018937706695705787,"270":-0.022745813137015482,"271":-0.07713089454316184,"272":0.028583871103130973,"273":-0.08901500856864868,"274":-0.020341443659986073,"275":0.01056665406327646,"276":0.10380444648712132,"277":0.029766271214894793,"278":0.0663226862567854,"279":-0.030274153556632107,"280":-0.04815765149115029,"281":-0.025573619864579723,"282":0.0016215014027228592,"283":0.0361101462497714,"284":-0.10815672944338833,"285":-0.06715447211230846,"286":0.053779548825449164,"287":0.00349974998758264,"288":0.018676802220324314,"289":-0.07238509725487546,"290":-0.0873739370275444,"291":-0.05202968021145062,"292":0.061380169415598415,"293":0.06038403892103604,"294":0.006539215245073105,"295":0.004908374097150457,"296":0.035864989793684285,"297":-0.017670503588160563,"298":0.033971158597090274,"299":0.008410615563363815,"300":-0.011629481472863887,"301":0.05937075294052934,"302":-0.008137102716141304,"303":0.1415182897093673,"304":0.008777348127786097,"305":-0.006531713999304223,"306":-0.0027296454212983228,"307":-0.0009839504492475848,"308":0.015604470146182497,"309":-0.010645654011487427,"310":0.010306044727358164,"311":0.0517462929900169,"312":-0.06305347002326547,"313":0.026911999270175437,"314":-0.015796055698264262,"315":0.010220717995960723,"316":0.00934795234696119,"317":0.032862530870618925,"318":0.02488671763868028,"319":-0.05749258112248793,"320":-0.004935223468082515,"321":-0.016575599639573353,"322":-0.047800864482057746,"323":-0.026576100233733795,"324":-0.029719128523345725,"325":0.013512816948625462,"326":0.04411403309795625,"327":0.024527617666240304,"328":-0.06426316185034289,"329":0.04968982598254522,"330":-0.007759044867048667,"331":-0.015500495638956828,"332":0.022746689062719806,"333":-0.031238198584620385,"334":0.03817468222711909,"335":-0.08116744381812163,"336":0.09070206476377865,"337":-0.14466500033556598,"338":-0.03545949006950867,"339":0.0832162272975684,"340":0.0019268088333517102,"341":-0.004220459626344312,"342":0.030570785432876564,"343":-0.0321974057343511,"344":-0.011459798841186336,